{"learner":{"attributes":{"best_iteration":"292","best_score":"2.9612575855548515"},"feature_names":["Close","High","Low","Open","Volume","RSI","EMA_short","EMA_long","MACD","MACD_signal","BB_high","BB_low","ATR","address1","city","state","zip","country","phone","website","industry","industryKey","industryDisp","sector","sectorKey","sectorDisp","longBusinessSummary","fullTimeEmployees","companyOfficers","auditRisk","boardRisk","compensationRisk","shareHolderRightsRisk","overallRisk","governanceEpochDate","compensationAsOfEpochDate","irWebsite","executiveTeam","maxAge","priceHint","previousClose","open","dayLow","dayHigh","regularMarketPreviousClose","regularMarketOpen","regularMarketDayLow","regularMarketDayHigh","dividendRate","dividendYield","exDividendDate","payoutRatio","fiveYearAvgDividendYield","beta","trailingPE","forwardPE","volume","regularMarketVolume","averageVolume","averageVolume10days","averageDailyVolume10Day","bid","ask","bidSize","askSize","marketCap","fiftyTwoWeekLow","fiftyTwoWeekHigh","allTimeHigh","allTimeLow","priceToSalesTrailing12Months","fiftyDayAverage","twoHundredDayAverage","trailingAnnualDividendRate","trailingAnnualDividendYield","currency","tradeable","enterpriseValue","profitMargins","floatShares","sharesOutstanding","sharesShort","sharesShortPriorMonth","sharesShortPreviousMonthDate","dateShortInterest","sharesPercentSharesOut","heldPercentInsiders","heldPercentInstitutions","shortRatio","shortPercentOfFloat","impliedSharesOutstanding","bookValue","priceToBook","lastFiscalYearEnd","nextFiscalYearEnd","mostRecentQuarter","earningsQuarterlyGrowth","netIncomeToCommon","trailingEps","forwardEps","lastSplitFactor","lastSplitDate","enterpriseToRevenue","enterpriseToEbitda","52WeekChange","SandP52WeekChange","lastDividendValue","lastDividendDate","quoteType","currentPrice","targetHighPrice","targetLowPrice","targetMeanPrice","targetMedianPrice","recommendationMean","recommendationKey","numberOfAnalystOpinions","totalCash","totalCashPerShare","ebitda","totalDebt","quickRatio","currentRatio","totalRevenue","debtToEquity","revenuePerShare","returnOnAssets","returnOnEquity","grossProfits","freeCashflow","operatingCashflow","earningsGrowth","revenueGrowth","grossMargins","ebitdaMargins","operatingMargins","financialCurrency","symbol","language","region","typeDisp","quoteSourceName","triggerable","customPriceAlertConfidence","regularMarketChangePercent","regularMarketPrice","marketState","corporateActions","postMarketTime","regularMarketTime","exchange","messageBoardId","exchangeTimezoneName","exchangeTimezoneShortName","gmtOffSetMilliseconds","market","esgPopulated","shortName","longName","dividendDate","earningsTimestamp","earningsTimestampStart","earningsTimestampEnd","earningsCallTimestampStart","earningsCallTimestampEnd","isEarningsDateEstimate","epsTrailingTwelveMonths","epsForward","epsCurrentYear","priceEpsCurrentYear","fiftyDayAverageChange","fiftyDayAverageChangePercent","twoHundredDayAverageChange","twoHundredDayAverageChangePercent","sourceInterval","exchangeDataDelayedBy","averageAnalystRating","cryptoTradeable","hasPrePostMarketData","firstTradeDateMilliseconds","postMarketChangePercent","postMarketPrice","postMarketChange","regularMarketChange","regularMarketDayRange","fullExchangeName","averageDailyVolume3Month","fiftyTwoWeekLowChange","fiftyTwoWeekLowChangePercent","fiftyTwoWeekRange","fiftyTwoWeekHighChange","fiftyTwoWeekHighChangePercent","fiftyTwoWeekChangePercent","displayName","trailingPegRatio"],"feature_types":["float","float","float","float","int","float","float","float","float","float","float","float","float","float","float","float","float","float","float","float","float","float","float","float","float","float","float","float","float","float","float","float","float","float","float","float","float","float","float","float","float","float","float","float","float","float","float","float","float","float","float","float","float","float","float","float","float","float","float","float","float","float","float","float","float","float","float","float","float","float","float","float","float","float","float","float","float","float","float","float","float","float","float","float","float","float","float","float","float","float","float","float","float","float","float","float","float","float","float","float","float","float","float","float","float","float","float","float","float","float","float","float","float","float","float","float","float","float","float","float","float","float","float","float","float","float","float","float","float","float","float","float","float","float","float","float","float","float","float","float","float","float","float","float","float","float","float","float","float","float","float","float","float","float","float","float","float","float","float","float","float","float","float","float","float","float","float","float","float","float","float","float","float","float","float","float","float","float","float","float","float","float","float","float","float","float","float","float","float","float","float","float","float","float","float"],"gradient_booster":{"model":{"gbtree_model_param":{"num_parallel_tree":"1","num_trees":"323"},"iteration_indptr":[0,1,2,3,4,5,6,7,8,9,10,11,12,13,14,15,16,17,18,19,20,21,22,23,24,25,26,27,28,29,30,31,32,33,34,35,36,37,38,39,40,41,42,43,44,45,46,47,48,49,50,51,52,53,54,55,56,57,58,59,60,61,62,63,64,65,66,67,68,69,70,71,72,73,74,75,76,77,78,79,80,81,82,83,84,85,86,87,88,89,90,91,92,93,94,95,96,97,98,99,100,101,102,103,104,105,106,107,108,109,110,111,112,113,114,115,116,117,118,119,120,121,122,123,124,125,126,127,128,129,130,131,132,133,134,135,136,137,138,139,140,141,142,143,144,145,146,147,148,149,150,151,152,153,154,155,156,157,158,159,160,161,162,163,164,165,166,167,168,169,170,171,172,173,174,175,176,177,178,179,180,181,182,183,184,185,186,187,188,189,190,191,192,193,194,195,196,197,198,199,200,201,202,203,204,205,206,207,208,209,210,211,212,213,214,215,216,217,218,219,220,221,222,223,224,225,226,227,228,229,230,231,232,233,234,235,236,237,238,239,240,241,242,243,244,245,246,247,248,249,250,251,252,253,254,255,256,257,258,259,260,261,262,263,264,265,266,267,268,269,270,271,272,273,274,275,276,277,278,279,280,281,282,283,284,285,286,287,288,289,290,291,292,293,294,295,296,297,298,299,300,301,302,303,304,305,306,307,308,309,310,311,312,313,314,315,316,317,318,319,320,321,322,323],"tree_info":[0,0,0,0,0,0,0,0,0,0,0,0,0,0,0,0,0,0,0,0,0,0,0,0,0,0,0,0,0,0,0,0,0,0,0,0,0,0,0,0,0,0,0,0,0,0,0,0,0,0,0,0,0,0,0,0,0,0,0,0,0,0,0,0,0,0,0,0,0,0,0,0,0,0,0,0,0,0,0,0,0,0,0,0,0,0,0,0,0,0,0,0,0,0,0,0,0,0,0,0,0,0,0,0,0,0,0,0,0,0,0,0,0,0,0,0,0,0,0,0,0,0,0,0,0,0,0,0,0,0,0,0,0,0,0,0,0,0,0,0,0,0,0,0,0,0,0,0,0,0,0,0,0,0,0,0,0,0,0,0,0,0,0,0,0,0,0,0,0,0,0,0,0,0,0,0,0,0,0,0,0,0,0,0,0,0,0,0,0,0,0,0,0,0,0,0,0,0,0,0,0,0,0,0,0,0,0,0,0,0,0,0,0,0,0,0,0,0,0,0,0,0,0,0,0,0,0,0,0,0,0,0,0,0,0,0,0,0,0,0,0,0,0,0,0,0,0,0,0,0,0,0,0,0,0,0,0,0,0,0,0,0,0,0,0,0,0,0,0,0,0,0,0,0,0,0,0,0,0,0,0,0,0,0,0,0,0,0,0,0,0,0,0,0,0,0,0,0,0,0,0,0,0,0,0,0,0,0,0,0,0,0,0,0,0,0,0,0,0,0,0,0,0],"trees":[{"base_weights":[3.161615E-1,-7.027072E1,4.173591E1,-8.215006E1,-3.3796177E1,1.7910854E1,7.957035E1,-4.3060627E0,-3.3055084E0,-4.8412235E1,-1.9092806E1,4.6230035E0,3.50897E1,5.909927E1,9.4633286E1,-2.6736794E0,-1.9068402E0,-1.979593E1,-6.0806435E-1,-5.6354904E0,1.2680207E1,1.3285102E0,1.9576644E0,2.6297956E0,3.2739244E0,4.136415E0,5.097118E0,-2.6835844E-1,-9.983582E-1,-9.468585E0,-6.741159E-1,9.121853E0,1.5801469E1,-5.606013E-1,-3.4639707E-1,-8.1681624E-2,9.1611736E-2,2.6988718E-1,5.031874E-1,1.4320259E-1,7.962102E-1],"categories":[],"categories_nodes":[],"categories_segments":[],"categories_sizes":[],"default_left":[0,0,0,0,0,0,0,0,0,0,0,0,0,0,0,0,0,0,0,0,0,0,0,0,0,0,0,0,0,0,0,0,0,0,0,0,0,0,0,0,0],"id":0,"left_children":[1,3,5,7,9,11,13,-1,-1,15,17,19,21,23,25,-1,-1,27,-1,29,31,-1,-1,-1,-1,-1,-1,-1,-1,33,35,37,39,-1,-1,-1,-1,-1,-1,-1,-1],"loss_changes":[3.5815162E6,1.9344775E5,6.944129E5,1.595125E4,2.3326234E4,1.0824614E5,8.622E4,0E0,0E0,8.273125E2,2.5955078E1,2.2309117E4,6.0931094E3,1.8487812E3,6.2665E3,0E0,0E0,6.169922E0,0E0,2.251619E3,1.5204883E3,0E0,0E0,0E0,0E0,0E0,0E0,0E0,0E0,2.1002734E2,1.3035278E2,1.9401123E2,7.044141E1,0E0,0E0,0E0,0E0,0E0,0E0,0E0,0E0],"parents":[2147483647,0,0,1,1,2,2,3,3,4,4,5,5,6,6,9,9,10,10,11,11,12,12,13,13,14,14,17,17,19,19,20,20,29,29,30,30,31,31,32,32],"right_children":[2,4,6,8,10,12,14,-1,-1,16,18,20,22,24,26,-1,-1,28,-1,30,32,-1,-1,-1,-1,-1,-1,-1,-1,34,36,38,40,-1,-1,-1,-1,-1,-1,-1,-1],"split_conditions":[1.19219826E2,7.519897E1,1.8110912E2,5.5215096E1,1.0718377E2,1.5465865E2,2.0570345E2,-4.3060627E0,-3.3055084E0,8.237729E1,1.1526443E2,1.333371E2,1.6305241E2,1.8934651E2,2.2195888E2,-2.6736794E0,-1.9068402E0,2.8050296E0,-6.0806435E-1,1.2630399E2,1.4339032E2,1.3285102E0,1.9576644E0,2.6297956E0,3.2739244E0,4.136415E0,5.097118E0,-2.6835844E-1,-9.983582E-1,1.2211812E2,1.3368198E2,1.4060533E2,-4.898653E0,-5.606013E-1,-3.4639707E-1,-8.1681624E-2,9.1611736E-2,2.6988718E-1,5.031874E-1,1.4320259E-1,7.962102E-1],"split_indices":[1,1,1,3,1,1,2,0,0,10,7,2,2,2,2,0,0,12,0,2,2,0,0,0,0,0,0,0,0,2,1,1,8,0,0,0,0,0,0,0,0],"split_type":[0,0,0,0,0,0,0,0,0,0,0,0,0,0,0,0,0,0,0,0,0,0,0,0,0,0,0,0,0,0,0,0,0,0,0,0,0,0,0,0,0],"sum_hessian":[1.223E3,4.52E2,7.71E2,3.4E2,1.12E2,4.74E2,2.97E2,2.69E2,7.1E1,5.5E1,5.7E1,2.68E2,2.06E2,1.28E2,1.69E2,3.4E1,2.1E1,5E1,7E0,1.18E2,1.5E2,6.9E1,1.37E2,6.8E1,6E1,6.9E1,1E2,1E0,4.9E1,6.6E1,5.2E1,7.2E1,7.8E1,3.7E1,2.9E1,3.8E1,1.4E1,1.6E1,5.6E1,1E0,7.7E1],"tree_param":{"num_deleted":"0","num_feature":"195","num_nodes":"41","size_leaf_vector":"1"}},{"base_weights":[4.9662074E-1,-6.835476E1,3.882361E1,-7.833345E1,-3.4686237E1,1.782603E1,7.907231E1,-4.1104712E0,-3.166443E0,-4.659849E1,-1.9237366E1,4.5623026E0,3.5449745E1,6.1979637E1,9.396589E1,-2.510914E0,-1.8592491E0,-2.6164952E-1,-9.70859E-1,-5.982605E0,1.2208244E1,1.3486729E0,3.970261E1,2.7313325E0,3.5279243E0,4.390041E0,5.2292438E0,-9.12627E0,-1.0475364E0,8.445328E0,1.4913922E1,1.7615343E0,2.119822E0,-5.736856E-1,-3.2359052E-1,-9.1702856E-2,8.0991365E-2,3.1725162E-1,5.1827455E-1,6.5113896E-1,8.7299234E-1],"categories":[],"categories_nodes":[],"categories_segments":[],"categories_sizes":[],"default_left":[0,0,0,0,0,0,0,0,0,0,0,0,0,0,0,0,0,0,0,0,0,0,0,0,0,0,0,0,0,0,0,0,0,0,0,0,0,0,0,0,0],"id":1,"left_children":[1,3,5,7,9,11,13,-1,-1,15,17,19,21,23,25,-1,-1,-1,-1,27,29,-1,31,-1,-1,-1,-1,33,35,37,39,-1,-1,-1,-1,-1,-1,-1,-1,-1,-1],"loss_changes":[3.2985825E6,1.4740412E5,6.771776E5,1.4727E4,1.8209867E4,1.23475266E5,6.4105125E4,0E0,0E0,6.527344E1,4.4179688E0,2.4505754E4,7.07875E3,4.3465312E3,2.13875E2,0E0,0E0,0E0,0E0,1.9711704E3,1.6542656E3,0E0,2.6248438E2,0E0,0E0,0E0,0E0,4.028042E2,1.1007274E2,2.3237744E2,2.4366797E2,0E0,0E0,0E0,0E0,0E0,0E0,0E0,0E0,0E0,0E0],"parents":[2147483647,0,0,1,1,2,2,3,3,4,4,5,5,6,6,9,9,10,10,11,11,12,12,13,13,14,14,19,19,20,20,22,22,27,27,28,28,29,29,30,30],"right_children":[2,4,6,8,10,12,14,-1,-1,16,18,20,22,24,26,-1,-1,-1,-1,28,30,-1,32,-1,-1,-1,-1,34,36,38,40,-1,-1,-1,-1,-1,-1,-1,-1,-1,-1],"split_conditions":[1.1600184E2,7.160868E1,1.8547968E2,5.5215096E1,1.0392516E2,1.5353636E2,2.1498946E2,-4.1104712E0,-3.166443E0,8.450887E1,2.8050296E0,1.3418274E2,1.6708699E2,1.9925229E2,2.347674E2,-2.510914E0,-1.8592491E0,-2.6164952E-1,-9.70859E-1,1.2630399E2,1.4404584E2,1.3486729E0,1.722825E2,2.7313325E0,3.5279243E0,4.390041E0,5.2292438E0,1.2260902E2,1.321206E2,1.4092256E2,1.4872255E2,1.7615343E0,2.119822E0,-5.736856E-1,-3.2359052E-1,-9.1702856E-2,8.0991365E-2,3.1725162E-1,5.1827455E-1,6.5113896E-1,8.7299234E-1],"split_indices":[0,2,1,3,0,0,0,0,0,6,12,0,0,0,0,0,0,0,0,2,0,0,0,0,0,0,0,0,0,0,0,0,0,0,0,0,0,0,0,0,0],"split_type":[0,0,0,0,0,0,0,0,0,0,0,0,0,0,0,0,0,0,0,0,0,0,0,0,0,0,0,0,0,0,0,0,0,0,0,0,0,0,0,0,0],"sum_hessian":[1.248E3,4.46E2,8.02E2,3.43E2,1.03E2,5.28E2,2.74E2,2.69E2,7.4E1,5.7E1,4.6E1,3.02E2,2.26E2,1.3E2,1.44E2,3.8E1,1.9E1,1E0,4.5E1,1.27E2,1.75E2,7.8E1,1.48E2,7.4E1,5.6E1,9.7E1,4.7E1,7.7E1,5E1,7.5E1,1E2,6.1E1,8.7E1,3.9E1,3.8E1,3.9E1,1.1E1,3.8E1,3.7E1,6.1E1,3.9E1],"tree_param":{"num_deleted":"0","num_feature":"195","num_nodes":"41","size_leaf_vector":"1"}},{"base_weights":[1.23203404E-1,-6.3600697E1,3.7409794E1,-7.2782005E1,-2.4633013E1,1.5416782E1,7.217425E1,-3.8896751E0,-2.848396E0,-1.8490527E0,-1.7509789E1,3.9291298E0,3.1466358E1,5.3434654E1,8.618822E1,-9.855911E-1,-7.1749854E-1,-5.5463095E0,1.0957023E1,1.1928186E0,1.7867526E0,2.3838654E0,2.9671774E0,3.8346126E0,4.672435E0,-8.193516E0,-1.5604624E0,8.227205E0,1.3928021E1,-4.8777947E-1,-2.9946586E-1,-1.8007144E-1,-4.0400717E-2,2.9961205E-1,4.8248193E-1,1.2334404E-1,7.019894E-1],"categories":[],"categories_nodes":[],"categories_segments":[],"categories_sizes":[],"default_left":[0,0,0,0,0,0,0,0,0,0,0,0,0,0,0,0,0,0,0,0,0,0,0,0,0,0,0,0,0,0,0,0,0,0,0,0,0],"id":2,"left_children":[1,3,5,7,9,11,13,-1,-1,-1,15,17,19,21,23,-1,-1,25,27,-1,-1,-1,-1,-1,-1,29,31,33,35,-1,-1,-1,-1,-1,-1,-1,-1],"loss_changes":[2.9866812E6,1.6416575E5,6.051514E5,2.5220375E4,7.2414297E3,8.964781E4,7.5947875E4,0E0,0E0,0E0,1.1062891E2,1.90423E4,5.712078E3,1.67575E3,4.744625E3,0E0,0E0,1.2696025E3,1.2044199E3,0E0,0E0,0E0,0E0,0E0,0E0,1.8504639E2,7.1671326E1,2.1411572E2,5.574707E1,0E0,0E0,0E0,0E0,0E0,0E0,0E0,0E0],"parents":[2147483647,0,0,1,1,2,2,3,3,4,4,5,5,6,6,10,10,11,11,12,12,13,13,14,14,17,17,18,18,25,25,26,26,27,27,28,28],"right_children":[2,4,6,8,10,12,14,-1,-1,-1,16,18,20,22,24,-1,-1,26,28,-1,-1,-1,-1,-1,-1,30,32,34,36,-1,-1,-1,-1,-1,-1,-1,-1],"split_conditions":[1.19219826E2,7.833917E1,1.8110912E2,5.6556835E1,1.0718377E2,1.5465865E2,2.0695345E2,-3.8896751E0,-2.848396E0,-1.8490527E0,1.114151E2,1.3626927E2,1.635957E2,1.8934651E2,2.2318768E2,-9.855911E-1,-7.1749854E-1,1.2630399E2,1.4339032E2,1.1928186E0,1.7867526E0,2.3838654E0,2.9671774E0,3.8346126E0,4.672435E0,1.2256701E2,1.2731085E2,1.4176523E2,-4.898653E0,-4.8777947E-1,-2.9946586E-1,-1.8007144E-1,-4.0400717E-2,2.9961205E-1,4.8248193E-1,1.2334404E-1,7.019894E-1],"split_indices":[1,3,1,2,1,1,2,0,0,0,2,1,2,2,2,0,0,2,2,0,0,0,0,0,0,2,2,1,8,0,0,0,0,0,0,0,0],"split_type":[0,0,0,0,0,0,0,0,0,0,0,0,0,0,0,0,0,0,0,0,0,0,0,0,0,0,0,0,0,0,0,0,0,0,0,0,0],"sum_hessian":[1.255E3,4.63E2,7.92E2,3.74E2,8.9E1,4.86E2,3.06E2,2.81E2,9.3E1,3.1E1,5.8E1,2.84E2,2.02E2,1.33E2,1.73E2,3.1E1,2.7E1,1.21E2,1.63E2,7.5E1,1.27E2,7.2E1,6.1E1,8E1,9.3E1,7.2E1,4.9E1,8.7E1,7.6E1,4E1,3.2E1,1.2E1,3.7E1,3.6E1,5.1E1,1E0,7.5E1],"tree_param":{"num_deleted":"0","num_feature":"195","num_nodes":"37","size_leaf_vector":"1"}},{"base_weights":[8.2782716E-1,-6.2326424E1,3.6190678E1,-7.127812E1,-3.0818329E1,1.586861E1,7.007384E1,-3.7105453E0,-2.871871E0,-4.234292E1,-1.7975899E1,4.3351865E0,3.1136152E1,5.5249817E1,8.3685265E1,-2.2345269E0,-1.5278001E0,-1.0543649E0,-7.775566E-1,-5.375536E0,1.084277E1,2.392258E1,3.5305935E1,2.388334E0,3.0944924E0,3.8130643E0,4.5062556E0,-7.821653E0,-1.128077E0,7.9972963E0,1.3790332E1,1.041531E0,1.3284849E0,1.502886E0,1.8479363E0,-4.8064232E-1,-2.8250182E-1,-7.183653E-2,2.911007E-1,2.6844063E-1,4.661722E-1,5.8399034E-1,7.6743954E-1],"categories":[],"categories_nodes":[],"categories_segments":[],"categories_sizes":[],"default_left":[0,0,0,0,0,0,0,0,0,0,0,0,0,0,0,0,0,0,0,0,0,0,0,0,0,0,0,0,0,0,0,0,0,0,0,0,0,0,0,0,0,0,0],"id":3,"left_children":[1,3,5,7,9,11,13,-1,-1,15,17,19,21,23,25,-1,-1,-1,-1,27,29,31,33,-1,-1,-1,-1,35,37,39,41,-1,-1,-1,-1,-1,-1,-1,-1,-1,-1,-1,-1],"loss_changes":[2.8184518E6,1.25521375E5,5.559031E5,9.96E3,1.430507E4,8.912343E4,5.6445E4,0E0,0E0,6.3390625E1,3.096875E1,1.8387084E4,5.683E3,4.34275E3,5.02E2,0E0,0E0,0E0,0E0,1.2023062E3,1.3381953E3,1.02171875E2,3.5265625E1,0E0,0E0,0E0,0E0,2.258999E2,1.0055951E2,2.5980176E2,8.350488E1,0E0,0E0,0E0,0E0,0E0,0E0,0E0,0E0,0E0,0E0,0E0,0E0],"parents":[2147483647,0,0,1,1,2,2,3,3,4,4,5,5,6,6,9,9,10,10,11,11,12,12,13,13,14,14,19,19,20,20,21,21,22,22,27,27,28,28,29,29,30,30],"right_children":[2,4,6,8,10,12,14,-1,-1,16,18,20,22,24,26,-1,-1,-1,-1,28,30,32,34,-1,-1,-1,-1,36,38,40,42,-1,-1,-1,-1,-1,-1,-1,-1,-1,-1,-1,-1],"split_conditions":[1.1600184E2,7.160868E1,1.8208836E2,5.431695E1,9.222401E1,1.5353636E2,2.1357722E2,-3.7105453E0,-2.871871E0,8.827062E1,1.1068555E2,1.3418274E2,1.6708699E2,1.9330751E2,2.2847667E2,-2.2345269E0,-1.5278001E0,-1.0543649E0,-7.775566E-1,1.2630399E2,1.454756E2,1.61541E2,1.7066562E2,2.388334E0,3.0944924E0,3.8130643E0,4.5062556E0,1.2307823E2,1.365739E2,1.3993459E2,1.4842703E2,1.041531E0,1.3284849E0,1.502886E0,1.8479363E0,-4.8064232E-1,-2.8250182E-1,-7.183653E-2,2.911007E-1,2.6844063E-1,4.661722E-1,5.8399034E-1,7.6743954E-1],"split_indices":[0,2,0,0,6,0,0,0,0,2,3,0,0,6,0,0,0,0,0,2,0,0,0,0,0,0,0,0,3,0,0,0,0,0,0,0,0,0,0,0,0,0,0],"split_type":[0,0,0,0,0,0,0,0,0,0,0,0,0,0,0,0,0,0,0,0,0,0,0,0,0,0,0,0,0,0,0,0,0,0,0,0,0,0,0,0,0,0,0],"sum_hessian":[1.26E3,4.52E2,8.08E2,3.51E2,1.01E2,5.06E2,3.02E2,2.86E2,6.5E1,5.2E1,4.9E1,2.89E2,2.17E2,1.47E2,1.55E2,4.1E1,1.1E1,1.8E1,3.1E1,1.16E2,1.73E2,8.2E1,1.35E2,7.3E1,7.4E1,7.8E1,7.7E1,7.3E1,4.3E1,9E1,8.3E1,4.2E1,4E1,3.7E1,9.8E1,3.8E1,3.5E1,4.2E1,1E0,3.2E1,5.8E1,3.9E1,4.4E1],"tree_param":{"num_deleted":"0","num_feature":"195","num_nodes":"43","size_leaf_vector":"1"}},{"base_weights":[2.7941693E-2,-5.8754063E1,3.3177986E1,-6.721358E1,-2.9974764E1,1.4452279E1,6.6511185E1,-3.5922215E0,-2.8884456E0,-2.0433261E0,-1.7820005E1,2.878212E0,2.8458843E1,4.8931583E1,7.769885E1,-1.0540154E0,-7.463564E-1,-5.523729E0,9.379857E0,2.0887785E1,3.2592907E1,2.1990974E0,2.7656276E0,3.5557938E0,4.3260074E0,-8.629708E0,-2.1050775E0,6.732788E0,5.902082E-1,7.7820796E-1,1.1108617E0,1.469057E0,1.7596072E0,-5.325594E-1,-3.34696E-1,-2.0502165E-1,-2.5129879E-2,2.3567192E-1,3.9901593E-1],"categories":[],"categories_nodes":[],"categories_segments":[],"categories_sizes":[],"default_left":[0,0,0,0,0,0,0,0,0,0,0,0,0,0,0,0,0,0,0,0,0,0,0,0,0,0,0,0,0,0,0,0,0,0,0,0,0,0,0],"id":4,"left_children":[1,3,5,7,9,11,13,-1,-1,-1,15,17,19,21,23,-1,-1,25,27,29,31,-1,-1,-1,-1,33,35,37,-1,-1,-1,-1,-1,-1,-1,-1,-1,-1,-1],"loss_changes":[2.3831578E6,1.05302E5,4.8711294E5,1.065525E4,1.2745859E4,8.128309E4,5.1400375E4,0E0,0E0,0E0,1.3891113E2,1.5130637E4,6.3973906E3,1.0549375E3,3.64025E3,0E0,0E0,1.2612756E3,9.1235645E2,2.227461E2,1.4420312E2,0E0,0E0,0E0,0E0,1.665586E2,1.8429114E2,1.5001685E2,0E0,0E0,0E0,0E0,0E0,0E0,0E0,0E0,0E0,0E0,0E0],"parents":[2147483647,0,0,1,1,2,2,3,3,4,4,5,5,6,6,10,10,11,11,12,12,13,13,14,14,17,17,18,18,19,19,20,20,25,25,26,26,27,27],"right_children":[2,4,6,8,10,12,14,-1,-1,-1,16,18,20,22,24,-1,-1,26,28,30,32,-1,-1,-1,-1,34,36,38,-1,-1,-1,-1,-1,-1,-1,-1,-1,-1,-1],"split_conditions":[1.1600184E2,7.27373E1,1.8132785E2,5.1495426E1,9.010252E1,1.510557E2,2.0887296E2,-3.5922215E0,-2.8884456E0,-2.0433261E0,1.0913894E2,1.3626927E2,1.6440555E2,1.9103873E2,2.2847667E2,-1.0540154E0,-7.463564E-1,1.23674515E2,1.4404584E2,1.5455133E2,1.7197551E2,2.1990974E0,2.7656276E0,3.5557938E0,4.3260074E0,1.19532104E2,1.2731085E2,1.3993459E2,5.902082E-1,7.7820796E-1,1.1108617E0,1.469057E0,1.7596072E0,-5.325594E-1,-3.34696E-1,-2.0502165E-1,-2.5129879E-2,2.3567192E-1,3.9901593E-1],"split_indices":[0,3,0,3,7,0,0,0,0,0,2,1,0,2,0,0,0,2,0,0,0,0,0,0,0,2,2,0,0,0,0,0,0,0,0,0,0,0,0],"split_type":[0,0,0,0,0,0,0,0,0,0,0,0,0,0,0,0,0,0,0,0,0,0,0,0,0,0,0,0,0,0,0,0,0,0,0,0,0,0,0],"sum_hessian":[1.221E3,4.4E2,7.81E2,3.39E2,1.01E2,5.01E2,2.8E2,2.23E2,1.16E2,5.2E1,4.9E1,2.75E2,2.26E2,1.11E2,1.69E2,2E1,2.9E1,1.2E2,1.55E2,8.2E1,1.44E2,6.7E1,4.4E1,1.02E2,6.7E1,6.2E1,5.8E1,7.6E1,7.9E1,1.9E1,6.3E1,7E1,7.4E1,2.8E1,3.4E1,2.5E1,3.3E1,3.1E1,4.5E1],"tree_param":{"num_deleted":"0","num_feature":"195","num_nodes":"39","size_leaf_vector":"1"}},{"base_weights":[-5.8121246E-1,-5.4208122E1,3.306715E1,-6.404091E1,-2.6369423E1,1.5020265E1,6.480491E1,-6.679268E1,-2.5506797E0,-3.8160942E1,-1.4885429E1,4.3169513E0,2.9217443E1,5.1211746E1,7.6303604E1,-3.5144985E0,-3.0920348E0,-2.097449E0,-1.5428342E0,-8.172881E-1,-5.7114094E-1,-4.2866144E0,1.0167188E1,2.4007807E1,1.6821543E0,2.2161322E0,2.8510282E0,3.589143E0,4.354255E0,-6.8597565E0,-9.637185E-1,8.317934E0,1.3978452E1,9.67271E-1,1.3004004E0,-4.167163E-1,-2.603424E-1,-6.0766894E-2,2.779312E-1,2.9377E-1,4.898529E-1,1.6760063E-1,7.0543647E-1],"categories":[],"categories_nodes":[],"categories_segments":[],"categories_sizes":[],"default_left":[0,0,0,0,0,0,0,0,0,0,0,0,0,0,0,0,0,0,0,0,0,0,0,0,0,0,0,0,0,0,0,0,0,0,0,0,0,0,0,0,0,0,0],"id":5,"left_children":[1,3,5,7,9,11,13,15,-1,17,19,21,23,25,27,-1,-1,-1,-1,-1,-1,29,31,33,-1,-1,-1,-1,-1,35,37,39,41,-1,-1,-1,-1,-1,-1,-1,-1,-1,-1],"loss_changes":[2.2465482E6,1.296575E5,4.371542E5,9.224E3,1.6602977E4,7.4164016E4,3.9324625E4,5.9225E2,0E0,3.8466406E2,1.3313477E2,1.4139733E4,4.0052188E3,2.6243438E3,8.829375E2,0E0,0E0,0E0,0E0,0E0,0E0,9.642097E2,1.0495957E3,4.067539E2,0E0,0E0,0E0,0E0,0E0,1.05823E2,8.8282486E1,3.500747E2,1.7348633E1,0E0,0E0,0E0,0E0,0E0,0E0,0E0,0E0,0E0,0E0],"parents":[2147483647,0,0,1,1,2,2,3,3,4,4,5,5,6,6,7,7,9,9,10,10,11,11,12,12,13,13,14,14,21,21,22,22,23,23,29,29,30,30,31,31,32,32],"right_children":[2,4,6,8,10,12,14,16,-1,18,20,22,24,26,28,-1,-1,-1,-1,-1,-1,30,32,34,-1,-1,-1,-1,-1,36,38,40,42,-1,-1,-1,-1,-1,-1,-1,-1,-1,-1],"split_conditions":[1.20191734E2,7.344903E1,1.8547968E2,5.6925243E1,9.390877E1,1.5455133E2,2.1498946E2,4.5653065E1,-2.5506797E0,8.2240906E1,1.1500794E2,1.3418274E2,1.6954926E2,1.9420464E2,2.367E2,-3.5144985E0,-3.0920348E0,-2.097449E0,-1.5428342E0,-8.172881E-1,-5.7114094E-1,1.2630399E2,1.476181E2,1.61541E2,1.6821543E0,2.2161322E0,2.8510282E0,3.589143E0,4.354255E0,1.2211812E2,1.365739E2,1.4224718E2,-4.3046446E0,9.67271E-1,1.3004004E0,-4.167163E-1,-2.603424E-1,-6.0766894E-2,2.779312E-1,2.9377E-1,4.898529E-1,1.6760063E-1,7.0543647E-1],"split_indices":[1,1,1,0,6,0,0,2,0,0,0,0,0,2,0,0,0,0,0,0,0,2,0,0,0,0,0,0,0,2,3,0,9,0,0,0,0,0,0,0,0,0,0],"split_type":[0,0,0,0,0,0,0,0,0,0,0,0,0,0,0,0,0,0,0,0,0,0,0,0,0,0,0,0,0,0,0,0,0,0,0,0,0,0,0,0,0,0,0],"sum_hessian":[1.243E3,4.79E2,7.64E2,3.53E2,1.26E2,4.88E2,2.76E2,2.88E2,6.5E1,6.1E1,6.5E1,2.79E2,2.09E2,1.29E2,1.47E2,1.61E2,1.27E2,3.7E1,2.4E1,4.3E1,2.2E1,1.13E2,1.66E2,9.9E1,1.1E2,6.3E1,6.6E1,1.09E2,3.8E1,6.3E1,5E1,1.14E2,5.2E1,3.3E1,6.6E1,3.1E1,3.2E1,4.9E1,1E0,4.5E1,6.9E1,1E0,5.1E1],"tree_param":{"num_deleted":"0","num_feature":"195","num_nodes":"43","size_leaf_vector":"1"}},{"base_weights":[2.0459226E-1,-5.220107E1,3.1593784E1,-6.1505383E1,-2.7316488E1,1.4063928E1,6.2439346E1,-3.2720177E0,-2.7109525E0,-3.759527E1,-1.4824079E1,3.602468E0,2.7698591E1,5.010258E1,7.389848E1,-2.0184581E0,-1.4072274E0,-8.117242E-1,-6.034984E-1,-4.292523E0,9.504321E0,2.2711739E1,1.6165999E0,2.1840377E0,2.868964E0,3.4643738E0,4.2143426E0,-6.2543283E0,-1.2090998E0,7.5901012E0,1.3112046E1,1.808805E1,1.2460858E0,-3.8791484E-1,-2.3657127E-1,-7.380438E-2,2.7098313E-1,2.7799052E-1,4.4043764E-1,1.6341057E-1,6.6133404E-1,9.149427E-1,2.4471016E-1],"categories":[],"categories_nodes":[],"categories_segments":[],"categories_sizes":[],"default_left":[0,0,0,0,0,0,0,0,0,0,0,0,0,0,0,0,0,0,0,0,0,0,0,0,0,0,0,0,0,0,0,0,0,0,0,0,0,0,0,0,0,0,0],"id":6,"left_children":[1,3,5,7,9,11,13,-1,-1,15,17,19,21,23,25,-1,-1,-1,-1,27,29,31,-1,-1,-1,-1,-1,33,35,37,39,41,-1,-1,-1,-1,-1,-1,-1,-1,-1,-1,-1],"loss_changes":[2.0200189E6,1.04781125E5,4.143552E5,5.96825E3,1.5724133E4,6.992004E4,3.5536E4,0E0,0E0,6.384219E2,1.9078125E1,1.304343E4,4.1597812E3,3.8450625E3,8.85125E2,0E0,0E0,0E0,0E0,7.1459546E2,9.9508496E2,6.1084375E2,0E0,0E0,0E0,0E0,0E0,1.2424658E2,9.097843E1,2.0858154E2,9.4609375E0,4.5341797E0,0E0,0E0,0E0,0E0,0E0,0E0,0E0,0E0,0E0,0E0,0E0],"parents":[2147483647,0,0,1,1,2,2,3,3,4,4,5,5,6,6,9,9,10,10,11,11,12,12,13,13,14,14,19,19,20,20,21,21,27,27,28,28,29,29,30,30,31,31],"right_children":[2,4,6,8,10,12,14,-1,-1,16,18,20,22,24,26,-1,-1,-1,-1,28,30,32,-1,-1,-1,-1,-1,34,36,38,40,42,-1,-1,-1,-1,-1,-1,-1,-1,-1,-1,-1],"split_conditions":[1.1602579E2,6.999055E1,1.8493637E2,4.9707718E1,9.390877E1,1.5455133E2,2.1753464E2,-3.2720177E0,-2.7109525E0,8.860075E1,1.1255073E2,1.3418274E2,1.7066562E2,2.0510721E2,2.3847E2,-2.0184581E0,-1.4072274E0,-8.117242E-1,-6.034984E-1,1.2630399E2,1.476181E2,1.61541E2,1.6165999E0,2.1840377E0,2.868964E0,3.4643738E0,4.2143426E0,1.2307823E2,1.365739E2,1.4151611E2,-4.3046446E0,4.968266E0,1.2460858E0,-3.8791484E-1,-2.3657127E-1,-7.380438E-2,2.7098313E-1,2.7799052E-1,4.4043764E-1,1.6341057E-1,6.6133404E-1,9.149427E-1,2.4471016E-1],"split_indices":[2,0,0,0,6,0,0,0,0,1,0,0,0,1,0,0,0,0,0,2,0,0,0,0,0,0,0,0,3,0,9,12,0,0,0,0,0,0,0,0,0,0,0],"split_type":[0,0,0,0,0,0,0,0,0,0,0,0,0,0,0,0,0,0,0,0,0,0,0,0,0,0,0,0,0,0,0,0,0,0,0,0,0,0,0,0,0,0,0],"sum_hessian":[1.226E3,4.59E2,7.67E2,3.33E2,1.26E2,4.9E2,2.77E2,2.11E2,1.22E2,6.8E1,5.8E1,2.78E2,2.12E2,1.36E2,1.41E2,5E1,1.8E1,3.5E1,2.3E1,1.19E2,1.59E2,1.05E2,1.07E2,7.6E1,6E1,1.03E2,3.8E1,7.2E1,4.7E1,1.06E2,5.3E1,3.7E1,6.8E1,3.4E1,3.8E1,4.6E1,1E0,4.2E1,6.4E1,1E0,5.2E1,3.6E1,1E0],"tree_param":{"num_deleted":"0","num_feature":"195","num_nodes":"43","size_leaf_vector":"1"}},{"base_weights":[2.312262E-1,-5.1432137E1,2.8760138E1,-5.833982E1,-2.8327066E1,1.2183173E1,5.774028E1,-3.1503162E0,-5.2906834E1,-1.8672179E0,-1.6777864E1,2.2702408E0,2.5206707E1,4.445758E1,6.909228E1,-2.752135E0,-2.237323E0,-1.0384104E0,-1.3034344E1,-4.86855E0,8.306476E0,1.9133587E1,2.8297083E1,1.9345887E0,2.5258253E0,3.2125301E0,3.9526029E0,-6.6276735E-1,-1.697073E-1,-7.8843627E0,-2.4245293E0,5.0813017E0,9.990822E0,8.081288E-1,1.0547628E0,1.2972039E0,1.5555671E0,-4.4995084E-1,-2.788972E-1,-2.0475745E-1,-4.239292E-2,1.566631E-1,2.9917252E-1,4.2393276E-1,5.5135584E-1],"categories":[],"categories_nodes":[],"categories_segments":[],"categories_sizes":[],"default_left":[0,0,0,0,0,0,0,0,0,0,0,0,0,0,0,0,0,0,0,0,0,0,0,0,0,0,0,0,0,0,0,0,0,0,0,0,0,0,0,0,0,0,0,0,0],"id":7,"left_children":[1,3,5,7,9,11,13,-1,15,-1,17,19,21,23,25,-1,-1,-1,27,29,31,33,35,-1,-1,-1,-1,-1,-1,37,39,41,43,-1,-1,-1,-1,-1,-1,-1,-1,-1,-1,-1,-1],"loss_changes":[1.818786E6,6.8369625E4,3.811818E5,5.1525E3,1.0073039E4,6.538346E4,4.0448438E4,0E0,3.1071875E2,0E0,4.1448145E2,1.249558E4,3.5450938E3,2.7519375E3,2.2754375E3,0E0,0E0,0E0,4.208008E0,9.560337E2,7.9456934E2,8.91875E1,1.1125781E2,0E0,0E0,0E0,0E0,0E0,0E0,9.4196045E1,1.9160773E2,7.51095E1,5.659082E1,0E0,0E0,0E0,0E0,0E0,0E0,0E0,0E0,0E0,0E0,0E0,0E0],"parents":[2147483647,0,0,1,1,2,2,3,3,4,4,5,5,6,6,8,8,10,10,11,11,12,12,13,13,14,14,18,18,19,19,20,20,21,21,22,22,29,29,30,30,31,31,32,32],"right_children":[2,4,6,8,10,12,14,-1,16,-1,18,20,22,24,26,-1,-1,-1,28,30,32,34,36,-1,-1,-1,-1,-1,-1,38,40,42,44,-1,-1,-1,-1,-1,-1,-1,-1,-1,-1,-1,-1],"split_conditions":[1.163565E2,7.092761E1,1.8208836E2,4.7939896E1,9.270551E1,1.5192226E2,2.1470633E2,-3.1503162E0,6.2518826E1,-1.8672179E0,1.10184616E2,1.3336557E2,1.6647241E2,1.957708E2,2.367E2,-2.752135E0,-2.237323E0,-1.0384104E0,7.4744934E1,1.242708E2,1.4224718E2,1.5693134E2,1.7403535E2,1.9345887E0,2.5258253E0,3.2125301E0,3.9526029E0,-6.6276735E-1,-1.697073E-1,1.20360756E2,1.2731085E2,1.3814304E2,1.4589653E2,8.081288E-1,1.0547628E0,1.2972039E0,1.5555671E0,-4.4995084E-1,-2.788972E-1,-2.0475745E-1,-4.239292E-2,1.566631E-1,2.9917252E-1,4.2393276E-1,5.5135584E-1],"split_indices":[1,1,0,0,0,0,1,0,1,0,1,0,0,0,0,0,0,0,5,0,0,2,0,0,0,0,0,0,0,2,2,0,0,0,0,0,0,0,0,0,0,0,0,0,0],"split_type":[0,0,0,0,0,0,0,0,0,0,0,0,0,0,0,0,0,0,0,0,0,0,0,0,0,0,0,0,0,0,0,0,0,0,0,0,0,0,0,0,0,0,0,0,0],"sum_hessian":[1.232E3,4.38E2,7.94E2,3.36E2,1.02E2,5.06E2,2.88E2,1.75E2,1.61E2,5.6E1,4.6E1,2.88E2,2.18E2,1.35E2,1.53E2,1.23E2,3.8E1,2E1,2.6E1,1.32E2,1.56E2,7.6E1,1.42E2,7.3E1,6.2E1,1.08E2,4.5E1,2.5E1,1E0,5.8E1,7.4E1,5.5E1,1.01E2,3.4E1,4.2E1,8.3E1,5.9E1,3.7E1,2.1E1,3.5E1,3.9E1,1.9E1,3.6E1,4.5E1,5.6E1],"tree_param":{"num_deleted":"0","num_feature":"195","num_nodes":"45","size_leaf_vector":"1"}},{"base_weights":[8.4668195E-1,-4.7722004E1,2.7882616E1,-5.5068645E1,-2.5251526E1,1.16294E1,5.4102375E1,-5.7211758E1,-2.190073E0,-3.4173603E1,-1.39001465E1,2.328244E0,2.2952559E1,4.2023502E1,6.6139885E1,-3.0174959E0,-2.6600928E0,-1.8159078E0,-1.2499727E0,-8.304164E-1,-5.8787644E-1,-4.43608E0,7.4006133E0,1.7485092E1,1.3531147E0,1.7747471E0,2.3812044E0,3.0856314E0,3.7796438E0,-6.767931E0,-2.0608249E0,4.0636673E0,8.828225E0,6.3631666E-1,9.375607E-1,-2.933126E-1,-4.3105617E-1,-1.7450659E-1,-4.252344E-2,-3.0076345E-2,2.1428116E-1,3.7037697E-1,5.116724E-1],"categories":[],"categories_nodes":[],"categories_segments":[],"categories_sizes":[],"default_left":[0,0,0,0,0,0,0,0,0,0,0,0,0,0,0,0,0,0,0,0,0,0,0,0,0,0,0,0,0,0,0,0,0,0,0,0,0,0,0,0,0,0,0],"id":8,"left_children":[1,3,5,7,9,11,13,15,-1,17,19,21,23,25,27,-1,-1,-1,-1,-1,-1,29,31,33,-1,-1,-1,-1,-1,35,37,39,41,-1,-1,-1,-1,-1,-1,-1,-1,-1,-1],"loss_changes":[1.6413824E6,7.236106E4,3.415408E5,5.556875E3,1.08440625E4,5.2277195E4,4.1804062E4,2.43375E2,0E0,2.8122656E2,8.647656E1,9.435565E3,4.5377812E3,3.972E3,1.627625E3,0E0,0E0,0E0,0E0,0E0,0E0,6.352095E2,7.0560645E2,3.4211914E2,0E0,0E0,0E0,0E0,0E0,4.0770752E1,9.865967E1,5.5157837E1,1.3297949E2,0E0,0E0,0E0,0E0,0E0,0E0,0E0,0E0,0E0,0E0],"parents":[2147483647,0,0,1,1,2,2,3,3,4,4,5,5,6,6,7,7,9,9,10,10,11,11,12,12,13,13,14,14,21,21,22,22,23,23,29,29,30,30,31,31,32,32],"right_children":[2,4,6,8,10,12,14,16,-1,18,20,22,24,26,28,-1,-1,-1,-1,-1,-1,30,32,34,-1,-1,-1,-1,-1,36,38,40,42,-1,-1,-1,-1,-1,-1,-1,-1,-1,-1],"split_conditions":[1.1824399E2,7.0920364E1,1.806307E2,5.6925243E1,9.222401E1,1.5045274E2,2.1498946E2,4.6195885E1,-2.190073E0,8.7401596E1,1.1217381E2,1.321206E2,1.6708699E2,1.9182945E2,2.367E2,-3.0174959E0,-2.6600928E0,-1.8159078E0,-1.2499727E0,-8.304164E-1,-5.8787644E-1,1.23674515E2,1.4092256E2,1.5166832E2,1.3531147E0,1.7747471E0,2.3812044E0,3.0856314E0,3.7796438E0,3.7754633E0,1.2731085E2,1.1988797E2,1.4589653E2,6.3631666E-1,9.375607E-1,-2.933126E-1,-4.3105617E-1,-1.7450659E-1,-4.252344E-2,-3.0076345E-2,2.1428116E-1,3.7037697E-1,5.116724E-1],"split_indices":[1,0,3,0,6,0,0,0,0,0,1,0,0,0,0,0,0,0,0,0,0,2,0,2,0,0,0,0,0,12,2,11,0,0,0,0,0,0,0,0,0,0,0],"split_type":[0,0,0,0,0,0,0,0,0,0,0,0,0,0,0,0,0,0,0,0,0,0,0,0,0,0,0,0,0,0,0,0,0,0,0,0,0,0,0,0,0,0,0],"sum_hessian":[1.248E3,4.46E2,8.02E2,3.35E2,1.11E2,4.96E2,3.06E2,2.78E2,5.7E1,6.1E1,5E1,2.73E2,2.23E2,1.55E2,1.51E2,1.48E2,1.3E2,4.7E1,1.4E1,1.9E1,3.1E1,1.17E2,1.56E2,9.8E1,1.25E2,7.5E1,8E1,1.08E2,4.3E1,5.8E1,5.9E1,4.8E1,1.08E2,2.3E1,7.5E1,4.2E1,1.6E1,2.6E1,3.3E1,2E0,4.6E1,5.7E1,5.1E1],"tree_param":{"num_deleted":"0","num_feature":"195","num_nodes":"43","size_leaf_vector":"1"}},{"base_weights":[5.564524E-1,-4.5416252E1,2.7290186E1,-5.239729E1,-2.2625925E1,1.2930939E1,5.400602E1,-2.786359E0,-2.232061E0,-3.1318947E1,-1.2286292E1,3.3009548E0,2.4280487E1,4.3076736E1,6.300319E1,-1.7158688E0,-1.2621163E0,-6.9136065E-1,-5.055323E-1,-3.8926375E0,8.166903E0,1.9942074E1,2.8264832E1,1.8650216E0,2.4400334E0,2.9810054E0,3.6239362E0,-5.841757E0,-1.2572032E0,6.1452084E0,1.1334642E1,7.693632E-1,1.079068E0,1.2409099E0,1.5157894E0,-3.9113417E-1,-2.4102084E-1,-1.1621455E-1,-2.1194564E-2,2.2021423E-1,3.817058E-1,4.0497968E-1,6.001882E-1],"categories":[],"categories_nodes":[],"categories_segments":[],"categories_sizes":[],"default_left":[0,0,0,0,0,0,0,0,0,0,0,0,0,0,0,0,0,0,0,0,0,0,0,0,0,0,0,0,0,0,0,0,0,0,0,0,0,0,0,0,0,0,0],"id":9,"left_children":[1,3,5,7,9,11,13,-1,-1,15,17,19,21,23,25,-1,-1,-1,-1,27,29,31,33,-1,-1,-1,-1,35,37,39,41,-1,-1,-1,-1,-1,-1,-1,-1,-1,-1,-1,-1],"loss_changes":[1.5141564E6,7.084931E4,2.9810756E5,6.39825E3,9.30073E3,5.54284E4,2.39795E4,0E0,0E0,1.607461E2,1.9206055E1,9.694934E3,3.4398281E3,2.302625E3,3.25E2,0E0,0E0,0E0,0E0,5.644253E2,9.782988E2,5.0810156E2,6.1242188E1,0E0,0E0,0E0,0E0,8.545459E1,4.1212296E1,2.2734204E2,2.9095215E1,0E0,0E0,0E0,0E0,0E0,0E0,0E0,0E0,0E0,0E0,0E0,0E0],"parents":[2147483647,0,0,1,1,2,2,3,3,4,4,5,5,6,6,9,9,10,10,11,11,12,12,13,13,14,14,19,19,20,20,21,21,22,22,27,27,28,28,29,29,30,30],"right_children":[2,4,6,8,10,12,14,-1,-1,16,18,20,22,24,26,-1,-1,-1,-1,28,30,32,34,-1,-1,-1,-1,36,38,40,42,-1,-1,-1,-1,-1,-1,-1,-1,-1,-1,-1,-1],"split_conditions":[1.19219826E2,7.160868E1,1.8755211E2,5.1170357E1,9.390877E1,1.5166832E2,2.1570201E2,-2.786359E0,-2.232061E0,8.389398E1,1.114151E2,1.3150853E2,1.7232211E2,2.0510721E2,2.4015E2,-1.7158688E0,-1.2621163E0,-6.9136065E-1,-5.055323E-1,1.254165E2,1.4500908E2,1.5912581E2,1.7409474E2,1.8650216E0,2.4400334E0,2.9810054E0,3.6239362E0,1.19532104E2,1.2924184E2,1.4043318E2,1.4882115E2,7.693632E-1,1.079068E0,1.2409099E0,1.5157894E0,-3.9113417E-1,-2.4102084E-1,-1.1621455E-1,-2.1194564E-2,2.2021423E-1,3.817058E-1,4.0497968E-1,6.001882E-1],"split_indices":[1,2,1,2,6,2,2,0,0,1,2,2,1,1,1,0,0,0,0,2,2,2,2,0,0,0,0,2,3,2,1,0,0,0,0,0,0,0,0,0,0,0,0],"split_type":[0,0,0,0,0,0,0,0,0,0,0,0,0,0,0,0,0,0,0,0,0,0,0,0,0,0,0,0,0,0,0,0,0,0,0,0,0,0,0,0,0,0,0],"sum_hessian":[1.23E3,4.52E2,7.78E2,3.45E2,1.07E2,5.07E2,2.71E2,2.37E2,1.08E2,5.7E1,5E1,2.75E2,2.32E2,1.25E2,1.46E2,3.5E1,2.2E1,2.6E1,2.4E1,1.11E2,1.64E2,1.14E2,1.18E2,6.6E1,5.9E1,1.13E2,3.3E1,6.3E1,4.8E1,1.02E2,6.2E1,3.3E1,8.1E1,4.9E1,6.9E1,1.9E1,4.4E1,2E1,2.8E1,4.9E1,5.3E1,1.3E1,4.9E1],"tree_param":{"num_deleted":"0","num_feature":"195","num_nodes":"43","size_leaf_vector":"1"}},{"base_weights":[3.4434816E-1,-4.277461E1,2.576665E1,-4.8427673E1,-1.5028294E1,1.1935763E1,5.118656E1,-5.1656822E1,-1.8208536E0,-1.1824214E0,-1.1342236E1,3.2939463E0,2.2645588E1,4.089801E1,6.081667E1,-2.7604625E0,-2.406692E0,-5.918398E-1,-3.8673338E-1,-3.5307665E0,7.5678005E0,8.4741974E-1,2.5163214E1,1.7172575E0,2.2633948E0,2.8635426E0,3.4776952E0,-6.04985E0,-1.9389945E0,5.6064577E0,9.9286175E0,1.1518763E0,1.4221128E0,-8.7415956E-2,-3.1043592E-1,-1.610156E-1,-3.651395E-2,1.9471793E-1,3.3557257E-1,4.1316715E-1,5.4775393E-1],"categories":[],"categories_nodes":[],"categories_segments":[],"categories_sizes":[],"default_left":[0,0,0,0,0,0,0,0,0,0,0,0,0,0,0,0,0,0,0,0,0,0,0,0,0,0,0,0,0,0,0,0,0,0,0,0,0,0,0,0,0],"id":10,"left_children":[1,3,5,7,9,11,13,15,-1,-1,17,19,21,23,25,-1,-1,-1,-1,27,29,-1,31,-1,-1,-1,-1,33,35,37,39,-1,-1,-1,-1,-1,-1,-1,-1,-1,-1],"loss_changes":[1.3713225E6,7.201975E4,2.7605094E5,1.3006625E4,2.2562227E3,4.720668E4,2.4907E4,1.057875E3,0E0,0E0,2.1420898E0,8.312401E3,2.8227656E3,2.3284844E3,3.2140625E2,0E0,0E0,0E0,0E0,4.2535376E2,7.468838E2,0E0,4.063672E2,0E0,0E0,0E0,0E0,1.386853E1,1.0253659E2,1.5396216E2,3.319336E1,0E0,0E0,0E0,0E0,0E0,0E0,0E0,0E0,0E0,0E0],"parents":[2147483647,0,0,1,1,2,2,3,3,4,4,5,5,6,6,7,7,10,10,11,11,12,12,13,13,14,14,19,19,20,20,22,22,27,27,28,28,29,29,30,30],"right_children":[2,4,6,8,10,12,14,16,-1,-1,18,20,22,24,26,-1,-1,-1,-1,28,30,-1,32,-1,-1,-1,-1,34,36,38,40,-1,-1,-1,-1,-1,-1,-1,-1,-1,-1],"split_conditions":[1.20191734E2,8.2240906E1,1.8493637E2,5.9766304E1,9.390877E1,1.5455133E2,2.1978056E2,4.5399273E1,-1.8208536E0,-1.1824214E0,1.1526443E2,1.3523642E2,1.6647241E2,1.957708E2,2.4094025E2,-2.7604625E0,-2.406692E0,-5.918398E-1,-3.8673338E-1,1.2310757E2,1.4566154E2,8.4741974E-1,1.7464894E2,1.7172575E0,2.2633948E0,2.8635426E0,3.4776952E0,3.3488052E1,1.2731085E2,1.4092256E2,1.4842703E2,1.1518763E0,1.4221128E0,-8.7415956E-2,-3.1043592E-1,-1.610156E-1,-3.651395E-2,1.9471793E-1,3.3557257E-1,4.1316715E-1,5.4775393E-1],"split_indices":[1,0,0,0,6,0,0,1,0,0,7,1,0,0,0,0,0,0,0,2,0,0,2,0,0,0,0,5,2,0,0,0,0,0,0,0,0,0,0,0,0],"split_type":[0,0,0,0,0,0,0,0,0,0,0,0,0,0,0,0,0,0,0,0,0,0,0,0,0,0,0,0,0,0,0,0,0,0,0,0,0,0,0,0,0],"sum_hessian":[1.249E3,4.63E2,7.86E2,3.84E2,7.9E1,5.1E2,2.76E2,3E2,8.4E1,2.2E1,5.7E1,2.83E2,2.27E2,1.36E2,1.4E2,1.42E2,1.58E2,4.8E1,9E0,1.09E2,1.74E2,7.2E1,1.55E2,5.8E1,7.8E1,1.05E2,3.5E1,4.1E1,6.8E1,9.7E1,7.7E1,9.9E1,5.6E1,2E0,3.9E1,3.2E1,3.6E1,4E1,5.7E1,3.3E1,4.4E1],"tree_param":{"num_deleted":"0","num_feature":"195","num_nodes":"41","size_leaf_vector":"1"}},{"base_weights":[8.5460466E-1,-4.0431816E1,2.4218992E1,-4.6604885E1,-1.7757902E1,1.0284889E1,4.6741676E1,-4.9092346E1,-1.784892E0,-1.3059181E0,-1.1388983E1,2.4027252E0,2.0231882E1,3.4024616E1,5.4498756E1,-2.6458092E0,-2.3159003E0,-2.4871598E-1,-5.8196706E-1,-3.3534167E0,7.099941E0,1.4963825E1,2.2742798E1,1.5312272E0,1.8770459E0,2.4203186E0,2.9886456E0,-5.1673503E0,-7.480486E-1,4.3405123E0,8.194746E0,5.6029636E-1,1.5879234E1,1.0247786E0,1.2489427E0,-3.3009365E-1,-1.9197594E-1,-5.1149856E-2,2.0043793E-1,2.3100474E-1,6.2437057E-3,3.7728935E-1,4.9338332E-1,8.017542E-1,1.6629104E-1],"categories":[],"categories_nodes":[],"categories_segments":[],"categories_sizes":[],"default_left":[0,0,0,0,0,0,0,0,0,0,0,0,0,0,0,0,0,0,0,0,0,0,0,0,0,0,0,0,0,0,0,0,0,0,0,0,0,0,0,0,0,0,0,0,0],"id":11,"left_children":[1,3,5,7,9,11,13,15,-1,-1,17,19,21,23,25,-1,-1,-1,-1,27,29,31,33,-1,-1,-1,-1,35,37,39,41,-1,43,-1,-1,-1,-1,-1,-1,-1,-1,-1,-1,-1,-1],"loss_changes":[1.214478E6,6.28255E4,2.5181281E5,7.8908125E3,4.955248E3,3.8985184E4,2.8386188E4,5.546875E2,0E0,0E0,2.6940918E1,7.569239E3,2.550914E3,2.3896875E2,3.1254375E3,0E0,0E0,0E0,0E0,5.8864844E2,4.2340283E2,6.307617E1,2.0396875E2,0E0,0E0,0E0,0E0,1.1038684E2,7.192554E1,5.126703E1,3.516992E1,0E0,4.8506836E1,0E0,0E0,0E0,0E0,0E0,0E0,0E0,0E0,0E0,0E0,0E0,0E0],"parents":[2147483647,0,0,1,1,2,2,3,3,4,4,5,5,6,6,7,7,10,10,11,11,12,12,13,13,14,14,19,19,20,20,21,21,22,22,27,27,28,28,29,29,30,30,32,32],"right_children":[2,4,6,8,10,12,14,16,-1,-1,18,20,22,24,26,-1,-1,-1,-1,28,30,32,34,-1,-1,-1,-1,36,38,40,42,-1,44,-1,-1,-1,-1,-1,-1,-1,-1,-1,-1,-1,-1],"split_conditions":[1.1602579E2,7.5398026E1,1.806307E2,5.9766304E1,1.0392516E2,1.510557E2,2.078612E2,4.433364E1,-1.784892E0,-1.3059181E0,3.5302628E1,1.3418274E2,1.6440555E2,1.9113818E2,2.2625392E2,-2.6458092E0,-2.3159003E0,-2.4871598E-1,-5.8196706E-1,1.2630399E2,1.4224718E2,1.5455133E2,1.722825E2,1.5312272E0,1.8770459E0,2.4203186E0,2.9886456E0,1.2260902E2,1.5193361E2,1.4320735E2,1.4842703E2,5.6029636E-1,4.968266E0,1.0247786E0,1.2489427E0,-3.3009365E-1,-1.9197594E-1,-5.1149856E-2,2.0043793E-1,2.3100474E-1,6.2437057E-3,3.7728935E-1,4.9338332E-1,8.017542E-1,1.6629104E-1],"split_indices":[2,2,3,0,0,0,0,0,0,0,5,0,0,0,0,0,0,0,0,2,0,0,0,0,0,0,0,0,10,3,0,0,12,0,0,0,0,0,0,0,0,0,0,0,0],"split_type":[0,0,0,0,0,0,0,0,0,0,0,0,0,0,0,0,0,0,0,0,0,0,0,0,0,0,0,0,0,0,0,0,0,0,0,0,0,0,0,0,0,0,0,0,0],"sum_hessian":[1.257E3,4.54E2,8.03E2,3.56E2,9.8E1,4.97E2,3.06E2,2.87E2,6.9E1,4.1E1,5.7E1,2.78E2,2.19E2,1.18E2,1.88E2,1.13E2,1.74E2,3E0,5.4E1,1.25E2,1.53E2,7.3E1,1.46E2,6.5E1,5.3E1,9.2E1,9.6E1,7.3E1,5.2E1,4.5E1,1.08E2,1.7E1,5.6E1,7.8E1,6.8E1,3.3E1,4E1,5E1,2E0,4.2E1,3E0,8.2E1,2.6E1,5.5E1,1E0],"tree_param":{"num_deleted":"0","num_feature":"195","num_nodes":"45","size_leaf_vector":"1"}},{"base_weights":[-2.4968587E-1,-3.9341846E1,2.2340948E1,-4.5577892E1,-2.1489805E1,8.735534E0,4.4097214E1,-2.4609392E0,-2.0799863E0,-1.4431454E0,-1.2407401E1,1.0453308E0,1.7599474E1,3.365402E1,5.379073E1,-7.561144E-1,-4.8570153E-1,-3.4380074E0,6.138922E0,1.165241E1,2.0493055E1,1.4588808E0,1.9378232E0,2.4596136E0,2.976741E0,-5.9666023E0,-1.7456895E0,3.9737346E0,6.9738426E0,5.092753E-1,6.5966666E-1,9.107025E-1,1.1012226E0,-3.6044958E-1,-2.272034E-1,-1.4992207E-1,-2.901434E-2,2.2291124E-1,-0E0,3.5111943E-1,5.6259155E-2],"categories":[],"categories_nodes":[],"categories_segments":[],"categories_sizes":[],"default_left":[0,0,0,0,0,0,0,0,0,0,0,0,0,0,0,0,0,0,0,0,0,0,0,0,0,0,0,0,0,0,0,0,0,0,0,0,0,0,0,0,0],"id":12,"left_children":[1,3,5,7,9,11,13,-1,-1,-1,15,17,19,21,23,-1,-1,25,27,29,31,-1,-1,-1,-1,33,35,37,39,-1,-1,-1,-1,-1,-1,-1,-1,-1,-1,-1,-1],"loss_changes":[1.1091989E6,5.0197E4,2.3520675E5,2.8316875E3,7.724074E3,3.344154E4,2.912275E4,0E0,0E0,0E0,2.5016699E2,6.0512373E3,3.668625E3,2.2612969E3,1.1639688E3,0E0,0E0,5.890934E2,1.9097607E2,2.7978516E1,1.0921484E2,0E0,0E0,0E0,0E0,6.0336304E1,1.2202728E2,7.164935E1,1.3010742E1,0E0,0E0,0E0,0E0,0E0,0E0,0E0,0E0,0E0,0E0,0E0,0E0],"parents":[2147483647,0,0,1,1,2,2,3,3,4,4,5,5,6,6,10,10,11,11,12,12,13,13,14,14,17,17,18,18,19,19,20,20,25,25,26,26,27,27,28,28],"right_children":[2,4,6,8,10,12,14,-1,-1,-1,16,18,20,22,24,-1,-1,26,28,30,32,-1,-1,-1,-1,34,36,38,40,-1,-1,-1,-1,-1,-1,-1,-1,-1,-1,-1,-1],"split_conditions":[1.155686E2,6.777211E1,1.7903226E2,4.7540844E1,9.35017E1,1.4872255E2,2.1470633E2,-2.4609392E0,-2.0799863E0,-1.4431454E0,1.1068555E2,1.3593246E2,1.61541E2,1.9164412E2,2.3204625E2,-7.561144E-1,-4.8570153E-1,1.242708E2,1.4151611E2,1.5506175E2,1.6954926E2,1.4588808E0,1.9378232E0,2.4596136E0,2.976741E0,1.19532104E2,1.2731085E2,1.4397414E2,1.425108E8,5.092753E-1,6.5966666E-1,9.107025E-1,1.1012226E0,-3.6044958E-1,-2.272034E-1,-1.4992207E-1,-2.901434E-2,2.2291124E-1,-0E0,3.5111943E-1,5.6259155E-2],"split_indices":[2,2,3,0,1,0,1,0,0,0,3,0,0,6,0,0,0,0,0,0,0,0,0,0,0,2,2,1,4,0,0,0,0,0,0,0,0,0,0,0,0],"split_type":[0,0,0,0,0,0,0,0,0,0,0,0,0,0,0,0,0,0,0,0,0,0,0,0,0,0,0,0,0,0,0,0,0,0,0,0,0,0,0,0,0],"sum_hessian":[1.254E3,4.59E2,7.95E2,3.39E2,1.2E2,4.9E2,3.05E2,1.71E2,1.68E2,6.5E1,5.5E1,2.63E2,2.27E2,1.49E2,1.56E2,2.5E1,3E1,1.4E2,1.23E2,7.6E1,1.51E2,8.3E1,6.6E1,9.2E1,6.4E1,5.5E1,8.5E1,3.6E1,8.7E1,4.3E1,3.3E1,6.6E1,8.5E1,2.7E1,2.8E1,4E1,4.5E1,3.2E1,4E0,8.6E1,1E0],"tree_param":{"num_deleted":"0","num_feature":"195","num_nodes":"41","size_leaf_vector":"1"}},{"base_weights":[3.2556862E-1,-3.8467304E1,2.1669077E1,-4.370237E1,-2.1144552E1,8.51201E0,4.2083973E1,-2.3438308E0,-1.9873055E0,-1.4020232E0,-1.2361065E1,1.8224379E0,1.7559025E1,3.0160313E1,4.9130955E1,-1.4524271E1,-4.8849723E-1,-3.8734007E0,5.781311E0,6.041931E-1,1.9578732E1,1.3469747E0,1.6619385E0,2.1130354E0,2.6591513E0,-3.3191863E-1,-7.655453E-1,-6.397933E0,-2.1997633E0,3.0756073E0,6.9971952E0,8.774749E-1,1.0647248E0,-2.3538367E-1,-3.562908E-1,-1.629443E-1,-4.527413E-2,-3.235575E-2,1.6204244E-1,2.8705758E-1,3.9175746E-1],"categories":[],"categories_nodes":[],"categories_segments":[],"categories_sizes":[],"default_left":[0,0,0,0,0,0,0,0,0,0,0,0,0,0,0,0,0,0,0,0,0,0,0,0,0,0,0,0,0,0,0,0,0,0,0,0,0,0,0,0,0],"id":13,"left_children":[1,3,5,7,9,11,13,-1,-1,-1,15,17,19,21,23,25,-1,27,29,-1,31,-1,-1,-1,-1,-1,-1,33,35,37,39,-1,-1,-1,-1,-1,-1,-1,-1,-1,-1],"loss_changes":[1.03579525E6,3.9308E4,2.1637678E5,2.36325E3,5.9930547E3,2.9734473E4,2.5030688E4,0E0,0E0,0E0,1.1499756E2,6.427292E3,2.05875E3,2.6429688E2,3.1889688E3,3.6266113E1,0E0,4.7596997E2,5.261333E2,0E0,1.3260938E2,0E0,0E0,0E0,0E0,0E0,0E0,1.7131592E1,9.366467E1,3.661209E1,6.926709E1,0E0,0E0,0E0,0E0,0E0,0E0,0E0,0E0,0E0,0E0],"parents":[2147483647,0,0,1,1,2,2,3,3,4,4,5,5,6,6,10,10,11,11,12,12,13,13,14,14,15,15,17,17,18,18,20,20,27,27,28,28,29,29,30,30],"right_children":[2,4,6,8,10,12,14,-1,-1,-1,16,18,20,22,24,26,-1,28,30,-1,32,-1,-1,-1,-1,-1,-1,34,36,38,40,-1,-1,-1,-1,-1,-1,-1,-1,-1,-1],"split_conditions":[1.1500794E2,6.826372E1,1.7903226E2,4.7540844E1,9.270551E1,1.510557E2,2.0629005E2,-2.3438308E0,-1.9873055E0,-1.4020232E0,1.1068555E2,1.321206E2,1.61541E2,1.897039E2,2.2321759E2,-2.9187834E-1,-4.8849723E-1,1.2307823E2,1.4092256E2,6.041931E-1,1.7066562E2,1.3469747E0,1.6619385E0,2.1130354E0,2.6591513E0,-3.3191863E-1,-7.655453E-1,3.0751126E0,1.2956892E2,1.1988797E2,1.454756E2,8.774749E-1,1.0647248E0,-2.3538367E-1,-3.562908E-1,-1.629443E-1,-4.527413E-2,-3.235575E-2,1.6204244E-1,2.8705758E-1,3.9175746E-1],"split_indices":[0,1,3,0,0,0,0,0,0,0,3,0,0,0,3,9,0,0,0,0,0,0,0,0,0,0,0,12,1,11,0,0,0,0,0,0,0,0,0,0,0],"split_type":[0,0,0,0,0,0,0,0,0,0,0,0,0,0,0,0,0,0,0,0,0,0,0,0,0,0,0,0,0,0,0,0,0,0,0,0,0,0,0,0,0],"sum_hessian":[1.249E3,4.43E2,8.06E2,3.39E2,1.04E2,4.91E2,3.15E2,1.82E2,1.57E2,5.7E1,4.7E1,2.83E2,2.08E2,1.19E2,1.96E2,2.3E1,2.4E1,1.16E2,1.67E2,5.8E1,1.5E2,6.3E1,5.6E1,7.7E1,1.19E2,3E0,2E1,4.5E1,7.1E1,5.3E1,1.14E2,7.4E1,7.6E1,1.6E1,2.9E1,3.8E1,3.3E1,2E0,5.1E1,4.9E1,6.5E1],"tree_param":{"num_deleted":"0","num_feature":"195","num_nodes":"41","size_leaf_vector":"1"}},{"base_weights":[-2.3195387E-1,-3.5172157E1,2.0502424E1,-4.0160603E1,-1.5821521E1,8.744493E0,3.9246254E1,-4.2393375E1,-1.5583109E0,-1.1271456E0,-9.43254E0,1.7529653E0,1.632396E1,2.8367477E1,4.6950294E1,-2.3054075E0,-2.0021849E0,-9.540095E0,-8.618069E-2,-2.9329622E0,5.3888745E0,1.1027973E1,1.8653643E1,1.2882355E0,1.5645679E0,2.0778835E0,2.6342475E0,-9.075699E-2,-4.8241457E-1,-5.343869E0,-1.5124046E0,3.3658357E0,6.423833E0,4.7180906E-1,6.1756104E-1,7.9854846E-1,9.8568326E-1,-2.7419883E-1,-7.872594E-2,-1.3162158E-1,-1.5268262E-2,1.8283592E-1,2.4571484E-2,1.4732803E-1,3.2700416E-1],"categories":[],"categories_nodes":[],"categories_segments":[],"categories_sizes":[],"default_left":[0,0,0,0,0,0,0,0,0,0,0,0,0,0,0,0,0,0,0,0,0,0,0,0,0,0,0,0,0,0,0,0,0,0,0,0,0,0,0,0,0,0,0,0,0],"id":14,"left_children":[1,3,5,7,9,11,13,15,-1,-1,17,19,21,23,25,-1,-1,27,-1,29,31,33,35,-1,-1,-1,-1,-1,-1,37,39,41,43,-1,-1,-1,-1,-1,-1,-1,-1,-1,-1,-1,-1],"loss_changes":[9.1427675E5,4.4705562E4,1.741806E5,6.1326875E3,3.9797773E3,2.5822465E4,2.419275E4,6.9425E2,0E0,0E0,2.103955E1,4.361623E3,2.6665312E3,1.4696875E2,3.2370938E3,0E0,0E0,1.9381836E1,0E0,3.7207092E2,2.7498535E2,2.8426758E1,1.2514453E2,0E0,0E0,0E0,0E0,0E0,0E0,9.48877E0,9.506528E1,3.8770813E1,1.3983643E1,0E0,0E0,0E0,0E0,0E0,0E0,0E0,0E0,0E0,0E0,0E0,0E0],"parents":[2147483647,0,0,1,1,2,2,3,3,4,4,5,5,6,6,7,7,10,10,11,11,12,12,13,13,14,14,17,17,19,19,20,20,21,21,22,22,29,29,30,30,31,31,32,32],"right_children":[2,4,6,8,10,12,14,16,-1,-1,18,20,22,24,26,-1,-1,28,-1,30,32,34,36,-1,-1,-1,-1,-1,-1,38,40,42,44,-1,-1,-1,-1,-1,-1,-1,-1,-1,-1,-1,-1],"split_conditions":[1.1602579E2,7.5398026E1,1.7660023E2,5.8081028E1,9.390877E1,1.4747266E2,2.0230482E2,4.313096E1,-1.5583109E0,-1.1271456E0,1.1946093E2,1.3150853E2,1.5912581E2,1.885834E2,2.2584825E2,-2.3054075E0,-2.0021849E0,2.8050296E0,-8.618069E-2,1.2256701E2,1.4043318E2,1.5166832E2,1.6696103E2,1.2882355E0,1.5645679E0,2.0778835E0,2.6342475E0,-9.075699E-2,-4.8241457E-1,6.5672297E0,1.2731085E2,1.425307E2,1.3581694E2,4.7180906E-1,6.1756104E-1,7.9854846E-1,9.8568326E-1,-2.7419883E-1,-7.872594E-2,-1.3162158E-1,-1.5268262E-2,1.8283592E-1,2.4571484E-2,1.4732803E-1,3.2700416E-1],"split_indices":[2,2,2,2,6,2,2,2,0,0,3,2,2,2,2,0,0,12,0,2,2,2,2,0,0,0,0,0,0,8,2,3,7,0,0,0,0,0,0,0,0,0,0,0,0],"split_type":[0,0,0,0,0,0,0,0,0,0,0,0,0,0,0,0,0,0,0,0,0,0,0,0,0,0,0,0,0,0,0,0,0,0,0,0,0,0,0,0,0,0,0,0,0],"sum_hessian":[1.26E3,4.69E2,7.91E2,3.72E2,9.7E1,4.87E2,3.04E2,2.95E2,7.7E1,4.6E1,5.1E1,2.54E2,2.33E2,1.28E2,1.76E2,1.07E2,1.88E2,5E1,1E0,1.11E2,1.43E2,7.3E1,1.6E2,7.3E1,5.5E1,9.5E1,8.1E1,1E0,4.9E1,4E1,7.1E1,5E1,9.3E1,3.7E1,3.6E1,5E1,1.1E2,3.8E1,2E0,3.6E1,3.5E1,4.5E1,5E0,4E0,8.9E1],"tree_param":{"num_deleted":"0","num_feature":"195","num_nodes":"45","size_leaf_vector":"1"}},{"base_weights":[7.0528306E-2,-3.279554E1,2.0034483E1,-3.75153E1,-1.1309539E1,1.0125328E1,4.0833004E1,-4.0083546E1,-1.3997407E0,-1.775987E1,-8.845428E0,2.5216682E0,1.8220196E1,3.2201176E1,4.6776134E1,-2.1708574E0,-1.8803816E0,-2.398655E-1,-9.054145E-1,-5.1854396E-1,-7.227303E0,-2.4007356E0,6.025114E0,1.471585E1,2.1040144E1,1.3595141E0,1.7409267E0,2.189716E0,2.786735E0,-1.7178345E-2,-7.404955E0,-3.6290212E0,-8.312244E-2,4.3802047E0,7.846207E0,1.149112E1,7.965602E-1,9.4993174E-1,1.1835394E0,-2.5609398E-2,-3.7915772E-1,-2.3775724E-1,-1.4430472E-1,-1.9624485E-2,1.8998465E-1,1.6249801E-1,2.6311645E-1,3.3745214E-1,4.3365508E-1,5.832575E-1,1.2250214E-1],"categories":[],"categories_nodes":[],"categories_segments":[],"categories_sizes":[],"default_left":[0,0,0,0,0,0,0,0,0,0,0,0,0,0,0,0,0,0,0,0,0,0,0,0,0,0,0,0,0,0,0,0,0,0,0,0,0,0,0,0,0,0,0,0,0,0,0,0,0,0,0],"id":15,"left_children":[1,3,5,7,9,11,13,15,-1,17,19,21,23,25,27,-1,-1,-1,-1,-1,29,31,33,35,37,-1,-1,-1,-1,-1,39,41,43,45,47,49,-1,-1,-1,-1,-1,-1,-1,-1,-1,-1,-1,-1,-1,-1,-1],"loss_changes":[8.247584E5,4.772047E4,1.6072794E5,8.35525E3,1.2124102E3,3.2627066E4,1.1381875E4,8.358125E2,0E0,5.553711E0,7.6691895E1,4.758755E3,2.2121875E3,4.125E2,1.4361562E3,0E0,0E0,0E0,0E0,0E0,3.6383423E1,3.2521167E2,4.417998E2,2.656875E2,2.8082422E2,0E0,0E0,0E0,0E0,0E0,3.3829956E1,4.5202576E1,4.9037586E1,6.5381836E1,1.7963867E0,2.1004883E1,0E0,0E0,0E0,0E0,0E0,0E0,0E0,0E0,0E0,0E0,0E0,0E0,0E0,0E0,0E0],"parents":[2147483647,0,0,1,1,2,2,3,3,4,4,5,5,6,6,7,7,9,9,10,10,11,11,12,12,13,13,14,14,20,20,21,21,22,22,23,23,24,24,30,30,31,31,32,32,33,33,34,34,35,35],"right_children":[2,4,6,8,10,12,14,16,-1,18,20,22,24,26,28,-1,-1,-1,-1,-1,30,32,34,36,38,-1,-1,-1,-1,-1,40,42,44,46,48,50,-1,-1,-1,-1,-1,-1,-1,-1,-1,-1,-1,-1,-1,-1,-1],"split_conditions":[1.192758E2,8.2240906E1,1.8835535E2,6.168605E1,2.4810169E0,1.5455133E2,2.1645018E2,4.433364E1,-1.3997407E0,2.201708E0,1.1255073E2,1.3418274E2,1.7066562E2,1.9700778E2,2.4094025E2,-2.1708574E0,-1.8803816E0,-2.398655E-1,-9.054145E-1,-5.1854396E-1,1.1749216E2,1.2731085E2,1.454756E2,1.61541E2,1.7903226E2,1.3595141E0,1.7409267E0,2.189716E0,2.786735E0,-1.7178345E-2,2.969974E1,1.2307823E2,1.5193361E2,4.6799637E1,1.4711928E2,4.968266E0,7.965602E-1,9.4993174E-1,1.1835394E0,-2.5609398E-2,-3.7915772E-1,-2.3775724E-1,-1.4430472E-1,-1.9624485E-2,1.8998465E-1,1.6249801E-1,2.6311645E-1,3.3745214E-1,4.3365508E-1,5.832575E-1,1.2250214E-1],"split_indices":[0,0,0,0,12,0,0,0,0,9,0,0,0,0,0,0,0,0,0,0,10,2,0,0,3,0,0,0,0,0,5,0,10,5,2,12,0,0,0,0,0,0,0,0,0,0,0,0,0,0,0],"split_type":[0,0,0,0,0,0,0,0,0,0,0,0,0,0,0,0,0,0,0,0,0,0,0,0,0,0,0,0,0,0,0,0,0,0,0,0,0,0,0,0,0,0,0,0,0,0,0,0,0,0,0],"sum_hessian":[1.255E3,4.74E2,7.81E2,3.88E2,8.6E1,5.3E2,2.51E2,3.03E2,8.5E1,2.2E1,6.4E1,2.74E2,2.56E2,1.05E2,1.46E2,1.22E2,1.81E2,1E0,2.1E1,3E1,3.4E1,1.14E2,1.6E2,1.17E2,1.39E2,4E1,6.5E1,1.14E2,3.2E1,1E0,3.3E1,7.4E1,4E1,8.6E1,7.4E1,3.5E1,8.2E1,8.3E1,5.6E1,1E0,3.2E1,2.7E1,4.7E1,3.8E1,2E0,4E1,4.6E1,3.6E1,3.8E1,3.4E1,1E0],"tree_param":{"num_deleted":"0","num_feature":"195","num_nodes":"51","size_leaf_vector":"1"}},{"base_weights":[5.012461E-1,-3.1120975E1,1.9023397E1,-3.5648735E1,-1.0588968E1,8.95886E0,3.8060696E1,-3.800037E1,-1.32028E0,-8.368759E-1,-8.33732E0,2.6392365E0,1.6777456E1,3.1012133E1,4.478113E1,-2.0826485E0,-1.7996705E0,-9.154839E0,-3.2123435E-1,-2.435836E0,5.7397547E0,1.28874855E1,1.8749353E1,1.3379964E0,1.7434634E0,2.1117737E0,2.5978847E0,-7.9009056E-2,-4.6428296E-1,-3.9909523E0,-4.4877532E-1,4.0193114E0,7.2840023E0,5.1614255E-1,6.8810564E-1,8.5063076E-1,1.0722454E0,-2.3005405E-1,-1.4419594E-1,-4.7416832E-2,4.3391746E-2,-1.055912E-1,2.0599027E-1,3.2741997E-1,4.468398E-1],"categories":[],"categories_nodes":[],"categories_segments":[],"categories_sizes":[],"default_left":[0,0,0,0,0,0,0,0,0,0,0,0,0,0,0,0,0,0,0,0,0,0,0,0,0,0,0,0,0,0,0,0,0,0,0,0,0,0,0,0,0,0,0,0,0],"id":16,"left_children":[1,3,5,7,9,11,13,15,-1,-1,17,19,21,23,25,-1,-1,27,-1,29,31,33,35,-1,-1,-1,-1,-1,-1,37,39,41,43,-1,-1,-1,-1,-1,-1,-1,-1,-1,-1,-1,-1],"loss_changes":[7.420968E5,4.310653E4,1.5272519E5,7.2894062E3,1.0385322E3,2.583716E4,1.1647281E4,6.83125E2,0E0,0E0,3.5027832E1,4.594622E3,1.5374766E3,1.2994844E3,2.9784375E2,0E0,0E0,2.2503662E1,0E0,3.3899133E2,4.4595068E2,2.9828125E1,3.3219922E2,0E0,0E0,0E0,0E0,0E0,0E0,2.4865173E1,3.3749626E1,6.3924683E1,4.8020996E1,0E0,0E0,0E0,0E0,0E0,0E0,0E0,0E0,0E0,0E0,0E0,0E0],"parents":[2147483647,0,0,1,1,2,2,3,3,4,4,5,5,6,6,7,7,10,10,11,11,12,12,13,13,14,14,17,17,19,19,20,20,21,21,22,22,29,29,30,30,31,31,32,32],"right_children":[2,4,6,8,10,12,14,16,-1,-1,18,20,22,24,26,-1,-1,28,-1,30,32,34,36,-1,-1,-1,-1,-1,-1,38,40,42,44,-1,-1,-1,-1,-1,-1,-1,-1,-1,-1,-1,-1],"split_conditions":[1.20191734E2,8.389398E1,1.8564558E2,6.2518826E1,9.390877E1,1.5166832E2,2.1647252E2,4.313096E1,-1.32028E0,-8.368759E-1,1.13403755E2,1.3626927E2,1.6917514E2,2.0510721E2,2.3805492E2,-2.0826485E0,-1.7996705E0,2.8050296E0,-3.2123435E-1,1.2630399E2,1.4339032E2,1.5693134E2,1.7464894E2,1.3379964E0,1.7434634E0,2.1117737E0,2.5978847E0,-7.9009056E-2,-4.6428296E-1,-7.955636E-2,1.3291438E2,1.1988797E2,1.4272206E2,5.1614255E-1,6.8810564E-1,8.5063076E-1,1.0722454E0,-2.3005405E-1,-1.4419594E-1,-4.7416832E-2,4.3391746E-2,-1.055912E-1,2.0599027E-1,3.2741997E-1,4.468398E-1],"split_indices":[1,1,3,1,6,2,2,2,0,0,2,1,1,1,2,0,0,12,0,2,2,2,2,0,0,0,0,0,0,8,1,11,11,0,0,0,0,0,0,0,0,0,0,0,0],"split_type":[0,0,0,0,0,0,0,0,0,0,0,0,0,0,0,0,0,0,0,0,0,0,0,0,0,0,0,0,0,0,0,0,0,0,0,0,0,0,0,0,0,0,0,0,0],"sum_hessian":[1.265E3,4.67E2,7.98E2,3.82E2,8.5E1,5.23E2,2.75E2,3.02E2,8E1,2.1E1,6.4E1,2.9E2,2.33E2,1.37E2,1.38E2,1E2,2.02E2,4.2E1,2.2E1,1.1E2,1.8E2,8.1E1,1.52E2,6.9E1,6.8E1,1.07E2,3.1E1,1E0,4.1E1,6.1E1,4.9E1,8.7E1,9.3E1,2.4E1,5.7E1,9.7E1,5.5E1,3.7E1,2.4E1,3.6E1,1.3E1,1E0,8.6E1,6.8E1,2.5E1],"tree_param":{"num_deleted":"0","num_feature":"195","num_nodes":"45","size_leaf_vector":"1"}},{"base_weights":[9.287232E-3,-2.9832798E1,1.7824953E1,-3.4848763E1,-1.4400317E1,7.7887716E0,3.3974426E1,-1.8630514E0,-2.9706917E1,-2.086629E1,-8.610804E0,2.3705034E0,1.5461632E1,2.4609676E1,3.9699383E1,-1.5674627E0,-1.2517861E0,-1.1244426E0,-7.9435503E-1,-5.4405874E-1,-7.23734E0,-2.2314181E0,5.516761E0,1.1374483E1,1.6754856E1,1.1137202E0,1.3770409E0,1.8106955E0,2.243843E0,-3.6621937E-1,-7.703381E-2,-4.1612463E0,-8.882749E-1,4.1767592E0,7.109272E0,5.7513964E-1,1.0826874E-1,7.787067E-1,9.358179E-1,-2.1861053E-1,-3.112917E-2,-9.6625015E-2,8.336788E-3,9.782649E-2,2.4018157E-1,2.7921948E-1,3.883681E-1],"categories":[],"categories_nodes":[],"categories_segments":[],"categories_sizes":[],"default_left":[0,0,0,0,0,0,0,0,0,0,0,0,0,0,0,0,0,0,0,0,0,0,0,0,0,0,0,0,0,0,0,0,0,0,0,0,0,0,0,0,0,0,0,0,0,0,0],"id":17,"left_children":[1,3,5,7,9,11,13,-1,15,17,19,21,23,25,27,-1,-1,-1,-1,-1,29,31,33,35,37,-1,-1,-1,-1,-1,-1,39,41,43,45,-1,-1,-1,-1,-1,-1,-1,-1,-1,-1,-1,-1],"loss_changes":[6.741347E5,3.616528E4,1.284053E5,3.2876875E3,4.2228965E3,2.0367076E4,1.5289125E4,0E0,9.9875E1,6.787695E1,1.1175928E2,4.198334E3,8.6833203E2,1.6935156E2,1.708875E3,0E0,0E0,0E0,0E0,0E0,5.605713E0,2.996391E2,3.3170557E2,2.9702637E1,4.339453E1,0E0,0E0,0E0,0E0,0E0,0E0,3.0614136E1,7.942357E1,1.2083423E2,2.721875E1,0E0,0E0,0E0,0E0,0E0,0E0,0E0,0E0,0E0,0E0,0E0,0E0],"parents":[2147483647,0,0,1,1,2,2,3,3,4,4,5,5,6,6,8,8,9,9,10,10,11,11,12,12,13,13,14,14,20,20,21,21,22,22,23,23,24,24,31,31,32,32,33,33,34,34],"right_children":[2,4,6,8,10,12,14,-1,16,18,20,22,24,26,28,-1,-1,-1,-1,-1,30,32,34,36,38,-1,-1,-1,-1,-1,-1,40,42,44,46,-1,-1,-1,-1,-1,-1,-1,-1,-1,-1,-1,-1],"split_conditions":[1.20191734E2,7.27373E1,1.806307E2,5.086978E1,9.010252E1,1.5455133E2,2.0230482E2,-1.8630514E0,6.536334E1,8.1697754E1,1.0913894E2,1.3593246E2,1.6440555E2,1.9113818E2,2.2847667E2,-1.5674627E0,-1.2517861E0,-1.1244426E0,-7.9435503E-1,-5.4405874E-1,7.224839E1,1.23674515E2,1.4440846E2,4.968266E0,1.7403535E2,1.1137202E0,1.3770409E0,1.8106955E0,2.243843E0,-3.6621937E-1,-7.703381E-2,1.2945685E2,1.3019385E2,4.2173492E1,1.479534E2,5.7513964E-1,1.0826874E-1,7.787067E-1,9.358179E-1,-2.1861053E-1,-3.112917E-2,-9.6625015E-2,8.336788E-3,9.782649E-2,2.4018157E-1,2.7921948E-1,3.883681E-1],"split_indices":[1,3,3,2,7,0,2,0,1,7,2,0,0,0,0,0,0,0,0,0,5,2,2,12,0,0,0,0,0,0,0,7,3,5,0,0,0,0,0,0,0,0,0,0,0,0,0],"split_type":[0,0,0,0,0,0,0,0,0,0,0,0,0,0,0,0,0,0,0,0,0,0,0,0,0,0,0,0,0,0,0,0,0,0,0,0,0,0,0,0,0,0,0,0,0,0,0],"sum_hessian":[1.266E3,4.73E2,7.93E2,3.56E2,1.17E2,4.9E2,3.03E2,2.38E2,1.18E2,5.4E1,6.3E1,2.88E2,2.02E2,1.17E2,1.86E2,8.3E1,3.5E1,3.8E1,1.6E1,2.1E1,4.2E1,1.17E2,1.71E2,5.1E1,1.51E2,7E1,4.7E1,1.16E2,7E1,4.1E1,1E0,4.7E1,7E1,9.5E1,7.6E1,5E1,1E0,1E2,5.1E1,4.4E1,3E0,3.5E1,3.5E1,2.2E1,7.3E1,2.6E1,5E1],"tree_param":{"num_deleted":"0","num_feature":"195","num_nodes":"47","size_leaf_vector":"1"}},{"base_weights":[1.1597765E-1,-2.9191431E1,1.6198898E1,-3.3814255E1,-1.7171242E1,6.5292606E0,3.1786388E1,-1.7975649E0,-1.5105661E0,-1.1126342E0,-1.016284E1,8.0855805E-1,1.3168554E1,2.2891964E1,3.805096E1,-1.2555043E1,-7.287116E0,-3.0407794E0,4.07173E0,9.072832E0,1.5261816E1,1.0161055E0,1.2349007E0,1.6915495E0,2.163144E0,-6.384885E-1,-1.5643635E-1,-7.5107954E-2,-3.7163043E-1,-4.640902E0,-1.48534E0,1.8675219E0,5.0085382E0,7.076096E0,9.893926E0,6.690633E-1,8.1482476E-1,-1.6477437E-1,-2.8497654E-1,-1.15353785E-1,-3.38859E-2,1.2967397E-1,4.027004E-2,1.1945166E-1,2.601404E-1,3.5975787E-1,8.7012485E-2,5.0531125E-1,2.2943135E-1],"categories":[],"categories_nodes":[],"categories_segments":[],"categories_sizes":[],"default_left":[0,0,0,0,0,0,0,0,0,0,0,0,0,0,0,0,0,0,0,0,0,0,0,0,0,0,0,0,0,0,0,0,0,0,0,0,0,0,0,0,0,0,0,0,0,0,0,0,0],"id":18,"left_children":[1,3,5,7,9,11,13,-1,-1,-1,15,17,19,21,23,25,27,29,31,33,35,-1,-1,-1,-1,-1,-1,-1,-1,37,39,41,43,45,47,-1,-1,-1,-1,-1,-1,-1,-1,-1,-1,-1,-1,-1,-1],"loss_changes":[5.839961E5,2.3787906E4,1.20353625E5,1.313875E3,4.173629E3,1.8783166E4,1.61486875E4,0E0,0E0,0E0,2.7007178E2,3.3666973E3,1.8126797E3,7.428906E1,2.4127969E3,8.771484E0,7.0926514E0,2.9617725E2,2.8662158E2,5.266504E1,5.8960938E1,0E0,0E0,0E0,0E0,0E0,0E0,0E0,0E0,6.217749E1,3.941777E1,3.0909225E1,3.517212E1,1.6369629E-1,7.1000977E0,0E0,0E0,0E0,0E0,0E0,0E0,0E0,0E0,0E0,0E0,0E0,0E0,0E0,0E0],"parents":[2147483647,0,0,1,1,2,2,3,3,4,4,5,5,6,6,10,10,11,11,12,12,13,13,14,14,15,15,16,16,17,17,18,18,19,19,20,20,29,29,30,30,31,31,32,32,33,33,34,34],"right_children":[2,4,6,8,10,12,14,-1,-1,-1,16,18,20,22,24,26,28,30,32,34,36,-1,-1,-1,-1,-1,-1,-1,-1,38,40,42,44,46,48,-1,-1,-1,-1,-1,-1,-1,-1,-1,-1,-1,-1,-1,-1],"split_conditions":[1.13403755E2,6.5895935E1,1.7903226E2,4.8541904E1,8.690245E1,1.4711928E2,2.0230482E2,-1.7975649E0,-1.5105661E0,-1.1126342E0,1.0913894E2,1.3291438E2,1.599021E2,1.895845E2,2.2990385E2,4.1088567E0,2.8050296E0,1.2256701E2,1.4176523E2,1.5393013E2,1.7136151E2,1.0161055E0,1.2349007E0,1.6915495E0,2.163144E0,-6.384885E-1,-1.5643635E-1,-7.5107954E-2,-3.7163043E-1,3.158917E0,1.2903928E2,-1.1703633E0,-3.753768E0,3.6725526E0,5.0511813E0,6.690633E-1,8.1482476E-1,-1.6477437E-1,-2.8497654E-1,-1.15353785E-1,-3.38859E-2,1.2967397E-1,4.027004E-2,1.1945166E-1,2.601404E-1,3.5975787E-1,8.7012485E-2,5.0531125E-1,2.2943135E-1],"split_indices":[2,2,3,2,6,2,2,0,0,0,2,1,2,1,1,9,12,2,1,1,1,0,0,0,0,0,0,0,0,12,1,9,8,9,12,0,0,0,0,0,0,0,0,0,0,0,0,0,0],"split_type":[0,0,0,0,0,0,0,0,0,0,0,0,0,0,0,0,0,0,0,0,0,0,0,0,0,0,0,0,0,0,0,0,0,0,0,0,0,0,0,0,0,0,0,0,0,0,0,0,0],"sum_hessian":[1.237E3,4.38E2,7.99E2,3.15E2,1.23E2,4.94E2,3.05E2,1.92E2,1.23E2,7E1,5.3E1,2.66E2,2.28E2,1.28E2,1.77E2,2.7E1,2.6E1,1.22E2,1.44E2,7.9E1,1.49E2,5.8E1,7E1,1.02E2,7.5E1,2.6E1,1E0,1E0,2.5E1,5.9E1,6.3E1,4.4E1,1E2,2.6E1,5.3E1,5.8E1,9.1E1,2.8E1,3.1E1,3E1,3.3E1,2.5E1,1.9E1,8E0,9.2E1,2.5E1,1E0,5E1,3E0],"tree_param":{"num_deleted":"0","num_feature":"195","num_nodes":"49","size_leaf_vector":"1"}},{"base_weights":[1.1439013E-1,-2.787672E1,1.5572647E1,-3.2377388E1,-1.6752972E1,7.22285E0,3.27191E1,-1.7344197E0,-1.4765972E0,-2.1300684E1,-9.512162E0,1.2100879E0,1.4084423E1,2.5782875E1,3.862534E1,-1.1005089E0,-7.4341697E-1,-6.523219E-1,-4.1167703E-1,-2.778982E0,4.7055936E0,1.0333868E1,1.601906E1,2.2805222E1,1.4605609E0,1.8105004E0,2.3487802E0,-4.486393E0,-1.1920277E0,3.3626444E0,5.8540406E0,4.4946584E-1,5.983521E-1,7.1041363E-1,9.023539E-1,1.1471927E0,3.1502268E-1,-5.040105E-3,-2.3080409E-1,-9.689775E-2,-1.4331986E-2,1.2167334E-1,2.1309792E-1,2.3290716E-1,3.2223934E-1],"categories":[],"categories_nodes":[],"categories_segments":[],"categories_sizes":[],"default_left":[0,0,0,0,0,0,0,0,0,0,0,0,0,0,0,0,0,0,0,0,0,0,0,0,0,0,0,0,0,0,0,0,0,0,0,0,0,0,0,0,0,0,0,0,0],"id":19,"left_children":[1,3,5,7,9,11,13,-1,-1,15,17,19,21,23,25,-1,-1,-1,-1,27,29,31,33,35,-1,-1,-1,37,39,41,43,-1,-1,-1,-1,-1,-1,-1,-1,-1,-1,-1,-1,-1,-1],"loss_changes":[5.3999706E5,2.1661594E4,1.1485194E5,1.014875E3,4.0627617E3,2.2336611E4,9.74625E3,0E0,0E0,1.4839844E1,1.169292E2,4.0577468E3,1.657043E3,5.7366406E2,1.0810312E3,0E0,0E0,0E0,0E0,3.6031616E2,2.147644E2,7.738086E1,3.333828E2,3.2773438E0,0E0,0E0,0E0,3.4145752E1,4.6957664E1,4.8117004E1,2.2358398E1,0E0,0E0,0E0,0E0,0E0,0E0,0E0,0E0,0E0,0E0,0E0,0E0,0E0,0E0],"parents":[2147483647,0,0,1,1,2,2,3,3,4,4,5,5,6,6,9,9,10,10,11,11,12,12,13,13,14,14,19,19,20,20,21,21,22,22,23,23,27,27,28,28,29,29,30,30],"right_children":[2,4,6,8,10,12,14,-1,-1,16,18,20,22,24,26,-1,-1,-1,-1,28,30,32,34,36,-1,-1,-1,38,40,42,44,-1,-1,-1,-1,-1,-1,-1,-1,-1,-1,-1,-1,-1,-1],"split_conditions":[1.1360374E2,6.536334E1,1.8755211E2,4.7393494E1,8.992612E1,1.510557E2,2.1753464E2,-1.7344197E0,-1.4765972E0,8.2240906E1,2.4810169E0,1.3418274E2,1.6647241E2,2.020255E2,2.4218027E2,-1.1005089E0,-7.4341697E-1,-6.523219E-1,-4.1167703E-1,1.242708E2,1.4404584E2,1.61541E2,1.7482457E2,2.1506612E2,1.4605609E0,1.8105004E0,2.3487802E0,3.3488052E1,1.2924184E2,4.6799637E1,8.864856E-1,4.4946584E-1,5.983521E-1,7.1041363E-1,9.023539E-1,1.1471927E0,3.1502268E-1,-5.040105E-3,-2.3080409E-1,-9.689775E-2,-1.4331986E-2,1.2167334E-1,2.1309792E-1,2.3290716E-1,3.2223934E-1],"split_indices":[0,1,1,3,0,0,0,0,0,0,12,0,0,0,0,0,0,0,0,0,0,0,0,7,0,0,0,5,3,5,8,0,0,0,0,0,0,0,0,0,0,0,0,0,0],"split_type":[0,0,0,0,0,0,0,0,0,0,0,0,0,0,0,0,0,0,0,0,0,0,0,0,0,0,0,0,0,0,0,0,0,0,0,0,0,0,0,0,0,0,0,0,0],"sum_hessian":[1.246E3,4.43E2,8.03E2,3.14E2,1.29E2,5.41E2,2.62E2,1.67E2,1.47E2,7.8E1,5.1E1,2.89E2,2.52E2,1.23E2,1.39E2,6.8E1,1E1,1.1E1,4E1,1.35E2,1.54E2,8.8E1,1.64E2,7E1,5.3E1,1.12E2,2.7E1,6.4E1,7.1E1,7.3E1,8.1E1,5.2E1,3.6E1,9.1E1,7.3E1,6.9E1,1E0,2E0,6.2E1,3.8E1,3.3E1,3.8E1,3.5E1,3E1,5.1E1],"tree_param":{"num_deleted":"0","num_feature":"195","num_nodes":"45","size_leaf_vector":"1"}},{"base_weights":[-8.238119E-2,-2.6073017E1,1.5040108E1,-3.069441E1,-1.51096735E1,6.7418056E0,3.0163906E1,-1.6517848E0,-1.402693E0,-1.9771345E1,-8.63395E0,1.7277411E0,1.3485738E1,2.4307032E1,3.668088E1,-1.036492E0,-7.48523E-1,-6.39034E-1,-7.5389905E0,-2.2533152E0,4.6946025E0,1.0174878E1,1.4783933E1,9.915315E-1,1.3402581E0,1.7175131E0,2.2376306E0,-6.155265E0,-8.760724E0,-3.1856668E0,-1.333088E-1,3.0377731E0,5.791468E0,5.148744E-1,2.0208919E-1,6.7626643E-1,8.379256E-1,-3.1344953E-1,-6.746006E-2,-4.4967794E-1,-7.263794E-2,-1.9028243E-1,-1.1073642E-1,-3.8366463E-2,4.70607E-2,1.970502E-1,9.753968E-2,-1.785469E-2,2.9307625E-1],"categories":[],"categories_nodes":[],"categories_segments":[],"categories_sizes":[],"default_left":[0,0,0,0,0,0,0,0,0,0,0,0,0,0,0,0,0,0,0,0,0,0,0,0,0,0,0,0,0,0,0,0,0,0,0,0,0,0,0,0,0,0,0,0,0,0,0,0,0],"id":20,"left_children":[1,3,5,7,9,11,13,-1,-1,15,17,19,21,23,25,-1,-1,-1,27,29,31,33,35,-1,-1,-1,-1,37,39,41,43,45,47,-1,-1,-1,-1,-1,-1,-1,-1,-1,-1,-1,-1,-1,-1,-1,-1],"loss_changes":[4.936667E5,2.2921E4,9.942669E4,1.0457188E3,4.0111797E3,1.734975E4,9.803406E3,0E0,0E0,3.9945312E1,1.6591699E2,3.5079268E3,7.783906E2,1.1337031E3,8.875781E2,0E0,0E0,0E0,2.3144531E1,2.4894293E2,2.8693652E2,8.8378906E-2,1.4340234E2,0E0,0E0,0E0,0E0,2.4902954E0,2.2548584E1,4.153418E1,2.7886057E1,5.8091614E1,4.8350586E1,0E0,0E0,0E0,0E0,0E0,0E0,0E0,0E0,0E0,0E0,0E0,0E0,0E0,0E0,0E0,0E0],"parents":[2147483647,0,0,1,1,2,2,3,3,4,4,5,5,6,6,9,9,10,10,11,11,12,12,13,13,14,14,18,18,19,19,20,20,21,21,22,22,27,27,28,28,29,29,30,30,31,31,32,32],"right_children":[2,4,6,8,10,12,14,-1,-1,16,18,20,22,24,26,-1,-1,-1,28,30,32,34,36,-1,-1,-1,-1,38,40,42,44,46,48,-1,-1,-1,-1,-1,-1,-1,-1,-1,-1,-1,-1,-1,-1,-1,-1],"split_conditions":[1.1600184E2,6.625906E1,1.8322548E2,4.6195885E1,9.270551E1,1.5166832E2,2.1647252E2,-1.6517848E0,-1.402693E0,8.2240906E1,9.010252E1,1.3626927E2,1.6537338E2,1.943044E2,2.4089484E2,-1.036492E0,-7.48523E-1,-6.39034E-1,1.461292E8,1.2731085E2,1.4404584E2,4.915305E0,1.7688426E2,9.915315E-1,1.3402581E0,1.7175131E0,2.2376306E0,5.229646E0,1.13403755E2,1.2459356E2,1.3155466E2,1.4991376E2,-4.898653E0,5.148744E-1,2.0208919E-1,6.7626643E-1,8.379256E-1,-3.1344953E-1,-6.746006E-2,-4.4967794E-1,-7.263794E-2,-1.9028243E-1,-1.1073642E-1,-3.8366463E-2,4.70607E-2,1.970502E-1,9.753968E-2,-1.785469E-2,2.9307625E-1],"split_indices":[0,1,0,0,0,2,2,0,0,0,7,1,0,1,2,0,0,0,4,2,0,12,1,0,0,0,0,9,2,6,0,10,8,0,0,0,0,0,0,0,0,0,0,0,0,0,0,0,0],"split_type":[0,0,0,0,0,0,0,0,0,0,0,0,0,0,0,0,0,0,0,0,0,0,0,0,0,0,0,0,0,0,0,0,0,0,0,0,0,0,0,0,0,0,0,0,0,0,0,0,0],"sum_hessian":[1.254E3,4.61E2,7.93E2,3.23E2,1.38E2,5.13E2,2.8E2,1.65E2,1.58E2,7.9E1,5.9E1,2.95E2,2.18E2,1.5E2,1.3E2,6.3E1,1.6E1,1E1,4.9E1,1.26E2,1.69E2,6.4E1,1.54E2,5.7E1,9.3E1,1.05E2,2.5E1,2.6E1,2.3E1,8.7E1,3.9E1,6.9E1,1E2,6.2E1,2E0,9.9E1,5.5E1,2.5E1,1E0,2.2E1,1E0,5.1E1,3.6E1,2.5E1,1.4E1,3.6E1,3.3E1,1E0,9.9E1],"tree_param":{"num_deleted":"0","num_feature":"195","num_nodes":"49","size_leaf_vector":"1"}},{"base_weights":[1.754556E-1,-2.389088E1,1.5110329E1,-2.7640614E1,-8.137733E0,7.291684E0,2.9241903E1,-2.9897915E1,-1.0874771E0,-1.2099672E1,-5.917737E0,2.2617002E0,1.3059641E1,2.332826E1,3.480896E1,-1.6280088E0,-1.4039866E0,-1.2160607E-1,-6.1584723E-1,-1.1342239E0,-6.0521913E0,-1.1783843E0,4.86442E0,1.0193908E1,1.4885099E1,2.0389168E1,1.335517E0,1.6327626E0,2.069267E0,-7.0821956E-2,-1.7448425E-3,-6.1248074E0,-3.351116E-2,-2.4632926E0,1.8747221E-1,4.3024116E0,6.5738063E0,4.115884E-1,5.57169E-1,6.6888356E-1,8.217725E-1,1.0254208E0,2.7364084E-1,-4.9421884E-2,-3.094403E-1,3.307177E-2,-1.2966542E-1,5.7131626E-2,-2.2473684E-2,1.5909562E-1,2.308547E-1,2.16512E-1,3.5823235E-1],"categories":[],"categories_nodes":[],"categories_segments":[],"categories_sizes":[],"default_left":[0,0,0,0,0,0,0,0,0,0,0,0,0,0,0,0,0,0,0,0,0,0,0,0,0,0,0,0,0,0,0,0,0,0,0,0,0,0,0,0,0,0,0,0,0,0,0,0,0,0,0,0,0],"id":21,"left_children":[1,3,5,7,9,11,13,15,-1,17,19,21,23,25,27,-1,-1,-1,-1,29,31,33,35,37,39,41,-1,-1,-1,-1,-1,43,-1,45,47,49,51,-1,-1,-1,-1,-1,-1,-1,-1,-1,-1,-1,-1,-1,-1,-1,-1],"loss_changes":[4.4209322E5,2.7579188E4,8.3630234E4,4.377125E3,7.285737E2,1.4179041E4,8.0477188E3,3.72E2,0E0,2.9885254E1,2.8775146E1,2.3623657E3,1.028457E3,7.6384375E2,5.519375E2,0E0,0E0,0E0,0E0,1.5564275E-1,1.5555664E1,2.0166974E2,1.1038208E2,6.9978516E1,8.540039E1,9.957031E0,0E0,0E0,0E0,0E0,0E0,9.360352E0,0E0,2.6650787E1,3.492975E1,2.2311035E1,9.623657E0,0E0,0E0,0E0,0E0,0E0,0E0,0E0,0E0,0E0,0E0,0E0,0E0,0E0,0E0,0E0,0E0],"parents":[2147483647,0,0,1,1,2,2,3,3,4,4,5,5,6,6,7,7,9,9,10,10,11,11,12,12,13,13,14,14,19,19,20,20,21,21,22,22,23,23,24,24,25,25,31,31,33,33,34,34,35,35,36,36],"right_children":[2,4,6,8,10,12,14,16,-1,18,20,22,24,26,28,-1,-1,-1,-1,30,32,34,36,38,40,42,-1,-1,-1,-1,-1,44,-1,46,48,50,52,-1,-1,-1,-1,-1,-1,-1,-1,-1,-1,-1,-1,-1,-1,-1,-1],"split_conditions":[1.19532104E2,8.389398E1,1.8755211E2,5.4849636E1,1.10184616E2,1.5166832E2,2.1570201E2,4.313096E1,-1.0874771E0,-1.4681888E0,3.174458E1,1.4060533E2,1.7069421E2,2.0510721E2,2.3805492E2,-1.6280088E0,-1.4039866E0,-1.2160607E-1,-6.1584723E-1,1.1824399E2,2.713008E8,1.2731085E2,1.4711928E2,1.630704E2,1.7409474E2,1.9647543E2,1.335517E0,1.6327626E0,2.069267E0,-7.0821956E-2,-1.7448425E-3,-2.8043537E0,-3.351116E-2,-4.096459E0,-1.310232E0,4.6799637E1,6.45478E7,4.115884E-1,5.57169E-1,6.6888356E-1,8.217725E-1,1.0254208E0,2.7364084E-1,-4.9421884E-2,-3.094403E-1,3.307177E-2,-1.2966542E-1,5.7131626E-2,-2.2473684E-2,1.5909562E-1,2.308547E-1,2.16512E-1,3.5823235E-1],"split_indices":[2,1,1,1,1,2,2,2,0,8,5,1,1,1,2,0,0,0,0,1,4,2,2,1,2,11,0,0,0,0,0,9,0,9,9,5,4,0,0,0,0,0,0,0,0,0,0,0,0,0,0,0,0],"split_type":[0,0,0,0,0,0,0,0,0,0,0,0,0,0,0,0,0,0,0,0,0,0,0,0,0,0,0,0,0,0,0,0,0,0,0,0,0,0,0,0,0,0,0,0,0,0,0,0,0,0,0,0,0],"sum_hessian":[1.228E3,4.7E2,7.58E2,3.79E2,9.1E1,4.89E2,2.69E2,2.71E2,1.08E2,3.1E1,6E1,2.62E2,2.27E2,1.33E2,1.36E2,1.03E2,1.68E2,1E0,3E1,2E0,5.8E1,1.13E2,1.49E2,9.1E1,1.36E2,7.5E1,5.8E1,1.07E2,2.9E1,1E0,1E0,5.7E1,1E0,5.8E1,5.5E1,1.15E2,3.4E1,3.3E1,5.8E1,7.4E1,6.2E1,7.4E1,1E0,1E0,5.6E1,2E0,5.6E1,2.2E1,3.3E1,2.8E1,8.7E1,9E0,2.5E1],"tree_param":{"num_deleted":"0","num_feature":"195","num_nodes":"53","size_leaf_vector":"1"}},{"base_weights":[-1.7704059E-1,-2.418233E1,1.3354483E1,-2.7977215E1,-1.4119536E1,5.249161E0,2.6153101E1,-1.5594374E0,-1.3130184E0,-9.0649956E-1,-7.9718833E0,6.538146E-1,1.0749789E1,1.9157757E1,3.1009693E1,-9.825008E0,-6.010888E0,-2.3797736E0,3.3371062E0,8.12428E0,6.4807224E-1,8.3099145E-1,2.0823425E1,1.4274358E0,1.8764175E0,-1.6061644E-1,-1.0257419E1,-3.0583063E-1,-6.905136E-2,-4.0386634E0,-1.4949791E0,1.7788979E0,4.2708983E0,6.471482E0,4.460089E-1,1.0479681E0,2.6679993E-1,-5.3384846E-1,-1.9373055E-1,-2.1794203E-1,-8.7182894E-2,-1.0489561E-1,-2.3585582E-2,1.01853944E-1,-5.293457E-2,5.5501666E-2,2.243919E-1,3.2830992E-1,6.4041905E-2],"categories":[],"categories_nodes":[],"categories_segments":[],"categories_sizes":[],"default_left":[0,0,0,0,0,0,0,0,0,0,0,0,0,0,0,0,0,0,0,0,0,0,0,0,0,0,0,0,0,0,0,0,0,0,0,0,0,0,0,0,0,0,0,0,0,0,0,0,0],"id":22,"left_children":[1,3,5,7,9,11,13,-1,-1,-1,15,17,19,21,23,25,27,29,31,33,-1,-1,35,-1,-1,-1,37,-1,-1,39,41,43,45,47,-1,-1,-1,-1,-1,-1,-1,-1,-1,-1,-1,-1,-1,-1,-1],"loss_changes":[3.946697E5,1.6309891E4,8.045061E4,9.001094E2,2.8503164E3,1.2044536E4,9.606859E3,0E0,0E0,0E0,1.1472339E2,2.1329607E3,1.1442148E3,1.6784375E2,1.7190312E3,2.894043E1,1.0202026E0,1.7173193E2,1.9162866E2,6.8754395E1,0E0,0E0,2.659375E1,0E0,0E0,0E0,1.0269287E1,0E0,0E0,2.021045E1,4.831642E1,4.220685E1,5.119104E1,5.8569336E0,0E0,0E0,0E0,0E0,0E0,0E0,0E0,0E0,0E0,0E0,0E0,0E0,0E0,0E0,0E0],"parents":[2147483647,0,0,1,1,2,2,3,3,4,4,5,5,6,6,10,10,11,11,12,12,13,13,14,14,15,15,16,16,17,17,18,18,19,19,22,22,26,26,29,29,30,30,31,31,32,32,33,33],"right_children":[2,4,6,8,10,12,14,-1,-1,-1,16,18,20,22,24,26,28,30,32,34,-1,-1,36,-1,-1,-1,38,-1,-1,40,42,44,46,48,-1,-1,-1,-1,-1,-1,-1,-1,-1,-1,-1,-1,-1,-1,-1],"split_conditions":[1.1600184E2,6.536334E1,1.8110912E2,4.277229E1,8.141026E1,1.4872255E2,2.078612E2,-1.5594374E0,-1.3130184E0,-9.0649956E-1,1.1068555E2,1.321206E2,1.6708699E2,1.895845E2,2.3638141E2,-1.2253463E0,1.1791166E2,1.2406007E2,1.4151611E2,1.5455133E2,6.4807224E-1,8.3099145E-1,2.17568E2,1.4274358E0,1.8764175E0,-1.6061644E-1,4.926377E0,-3.0583063E-1,-6.905136E-2,1.5070351E0,1.28669E2,1.436351E2,4.1608086E1,4.1088567E0,4.460089E-1,1.0479681E0,2.6679993E-1,-5.3384846E-1,-1.9373055E-1,-2.1794203E-1,-8.7182894E-2,-1.0489561E-1,-2.3585582E-2,1.01853944E-1,-5.293457E-2,5.5501666E-2,2.243919E-1,3.2830992E-1,6.4041905E-2],"split_indices":[0,1,1,0,11,0,0,0,0,0,3,0,0,1,1,8,3,1,0,0,0,0,7,0,0,0,8,0,0,9,0,1,5,9,0,0,0,0,0,0,0,0,0,0,0,0,0,0,0],"split_type":[0,0,0,0,0,0,0,0,0,0,0,0,0,0,0,0,0,0,0,0,0,0,0,0,0,0,0,0,0,0,0,0,0,0,0,0,0,0,0,0,0,0,0,0,0,0,0,0,0],"sum_hessian":[1.213E3,4.37E2,7.76E2,3.16E2,1.21E2,4.76E2,3E2,1.04E2,2.12E2,7.2E1,4.9E1,2.6E2,2.16E2,1.25E2,1.75E2,2.3E1,2.6E1,1.22E2,1.38E2,1.01E2,1.15E2,5.4E1,7.1E1,1.31E2,4.4E1,2E0,2.1E1,2.5E1,1E0,4.1E1,8.1E1,5.3E1,8.5E1,3.6E1,6.5E1,7E1,1E0,1.9E1,2E0,3.5E1,6E0,5E1,3.1E1,4.9E1,4E0,6E0,7.9E1,3.5E1,1E0],"tree_param":{"num_deleted":"0","num_feature":"195","num_nodes":"49","size_leaf_vector":"1"}},{"base_weights":[-1.3827638E-1,-2.229464E1,1.2986807E1,-2.5329767E1,-8.512674E0,6.1131535E0,2.6426163E1,-2.7363262E1,-2.0640831E1,-6.640072E-1,-5.9735494E0,1.8076737E0,1.1780079E1,2.094007E1,3.1399103E1,-1.4923569E0,-1.2881634E0,-1.1229644E0,-9.150556E-1,-1.4236921E-1,-6.2053123E0,-1.7180647E0,4.023315E0,9.448389E0,1.3686205E1,8.669335E-1,1.1449231E0,1.494441E0,1.9183226E0,-8.5832976E-2,-6.337874E0,-2.6189187E0,-5.493422E-1,3.0070481E0,5.421338E0,3.8566765E-1,1.0163569E1,6.1746806E-1,7.4699014E-1,-7.37648E-2,-3.1978098E-1,5.6209564E-3,-1.3576744E-1,-9.736219E-3,-1.5761457E-1,6.8820156E-2,1.6874282E-1,2.858796E-1,1.5527552E-1,5.129825E-1,7.344971E-2],"categories":[],"categories_nodes":[],"categories_segments":[],"categories_sizes":[],"default_left":[0,0,0,0,0,0,0,0,0,0,0,0,0,0,0,0,0,0,0,0,0,0,0,0,0,0,0,0,0,0,0,0,0,0,0,0,0,0,0,0,0,0,0,0,0,0,0,0,0,0,0],"id":23,"left_children":[1,3,5,7,9,11,13,15,17,-1,19,21,23,25,27,-1,-1,-1,-1,-1,29,31,33,35,37,-1,-1,-1,-1,-1,39,41,43,45,47,-1,49,-1,-1,-1,-1,-1,-1,-1,-1,-1,-1,-1,-1,-1,-1],"loss_changes":[3.6583497E5,1.9343922E4,7.2800375E4,3.0630625E3,9.520908E2,1.27569E4,6.600625E3,2.524375E2,7.914844E1,0E0,1.9827393E1,2.3437844E3,8.635762E2,4.9973438E2,2.7128125E2,0E0,0E0,0E0,0E0,0E0,1.6629028E1,1.19107574E2,2.409043E2,4.295703E1,6.314453E0,0E0,0E0,0E0,0E0,0E0,9.4970703E-1,1.8726624E1,4.5711384E1,5.8353577E1,2.9974121E1,0E0,3.837549E1,0E0,0E0,0E0,0E0,0E0,0E0,0E0,0E0,0E0,0E0,0E0,0E0,0E0,0E0],"parents":[2147483647,0,0,1,1,2,2,3,3,4,4,5,5,6,6,7,7,8,8,10,10,11,11,12,12,13,13,14,14,20,20,21,21,22,22,23,23,24,24,30,30,31,31,32,32,33,33,34,34,36,36],"right_children":[2,4,6,8,10,12,14,16,18,-1,20,22,24,26,28,-1,-1,-1,-1,-1,30,32,34,36,38,-1,-1,-1,-1,-1,40,42,44,46,48,-1,50,-1,-1,-1,-1,-1,-1,-1,-1,-1,-1,-1,-1,-1,-1],"split_conditions":[1.20191734E2,7.829077E1,1.8755211E2,5.318398E1,9.390877E1,1.5652448E2,2.1830563E2,4.251337E1,6.536334E1,-6.640072E-1,-2.3298721E0,1.3626927E2,1.7136151E2,1.9809808E2,2.4636542E2,-1.4923569E0,-1.2881634E0,-1.1229644E0,-9.150556E-1,-1.4236921E-1,2.8778608E0,1.2903928E2,1.4788437E2,1.630704E2,1.7777644E2,8.669335E-1,1.1449231E0,1.494441E0,1.9183226E0,-8.5832976E-2,4.69649E7,-4.4049287E0,2.6926405E0,1.4060533E2,5.0319905E0,3.8566765E-1,5.0511813E0,6.1746806E-1,7.4699014E-1,-7.37648E-2,-3.1978098E-1,5.6209564E-3,-1.3576744E-1,-9.736219E-3,-1.5761457E-1,6.8820156E-2,1.6874282E-1,2.858796E-1,1.5527552E-1,5.129825E-1,7.344971E-2],"split_indices":[1,1,1,1,6,1,1,1,1,0,9,1,1,10,1,0,0,0,0,0,12,1,1,1,1,0,0,0,0,0,4,8,9,1,12,0,12,0,0,0,0,0,0,0,0,0,0,0,0,0,0],"split_type":[0,0,0,0,0,0,0,0,0,0,0,0,0,0,0,0,0,0,0,0,0,0,0,0,0,0,0,0,0,0,0,0,0,0,0,0,0,0,0,0,0,0,0,0,0,0,0,0,0,0,0],"sum_hessian":[1.256E3,4.67E2,7.89E2,3.82E2,8.5E1,5.23E2,2.66E2,2.63E2,1.19E2,2.8E1,5.7E1,2.98E2,2.25E2,1.29E2,1.37E2,9.6E1,1.67E2,6.2E1,5.7E1,5E0,5.2E1,1.15E2,1.83E2,1.04E2,1.21E2,4.9E1,8E1,1.17E2,2E1,2E0,5E1,6.4E1,5.1E1,1.08E2,7.5E1,3.4E1,7E1,6.4E1,5.7E1,1E0,4.9E1,2E0,6.2E1,4.6E1,5E0,2.1E1,8.7E1,6.5E1,1E1,6.9E1,1E0],"tree_param":{"num_deleted":"0","num_feature":"195","num_nodes":"51","size_leaf_vector":"1"}},{"base_weights":[1.637783E-1,-2.062848E1,1.2861769E1,-2.4458258E1,-1.0553395E1,6.849261E0,2.6591864E1,-1.3136657E0,-1.0630561E0,-1.4559451E1,-5.799594E0,1.7909132E0,1.1973574E1,2.2513647E1,3.1244654E1,-8.0248034E-1,-1.1779235E1,-9.81157E-2,-6.0180144E0,-1.8802755E0,3.6896672E0,9.62058E0,1.415219E1,9.466025E-1,1.2021464E0,1.4540875E0,1.8836186E0,-1.1049061E-1,-6.012111E-1,-2.5547117E-1,-7.109318E0,-2.5487163E0,-5.320314E-1,2.002515E0,4.4139037E0,7.376451E0,1.0364581E1,1.424117E1,2.6023534E-1,-3.6245403E-1,-8.48692E-2,-2.3061244E-2,-1.3560498E-1,9.35936E-4,-6.582647E-2,8.1927955E-2,2.148346E-1,1.8847671E-1,2.7466047E-1,3.7551126E-1,5.1514816E-2,5.2183735E-1,7.161331E-2,4.4298458E-1,7.2294724E-1],"categories":[],"categories_nodes":[],"categories_segments":[],"categories_sizes":[],"default_left":[0,0,0,0,0,0,0,0,0,0,0,0,0,0,0,0,0,0,0,0,0,0,0,0,0,0,0,0,0,0,0,0,0,0,0,0,0,0,0,0,0,0,0,0,0,0,0,0,0,0,0,0,0,0,0],"id":24,"left_children":[1,3,5,7,9,11,13,-1,-1,15,17,19,21,23,25,-1,27,-1,29,31,33,35,37,-1,-1,-1,-1,-1,-1,-1,39,41,43,45,47,49,51,53,-1,-1,-1,-1,-1,-1,-1,-1,-1,-1,-1,-1,-1,-1,-1,-1,-1],"loss_changes":[3.3424662E5,1.8245328E4,6.468725E4,1.4312812E3,2.4572764E3,1.4176139E4,3.8047344E3,0E0,0E0,9.532617E1,3.7003662E1,1.9387218E3,1.2463047E3,2.4085156E2,3.8642188E2,0E0,3.4298584E1,0E0,1.6067383E1,8.2719666E1,2.1156006E2,1.3840625E2,2.6822266E1,0E0,0E0,0E0,0E0,0E0,0E0,0E0,1.3756104E0,1.8649292E1,1.4931608E1,3.7585815E1,6.2986816E1,1.940332E1,4.2289062E1,2.0792969E1,0E0,0E0,0E0,0E0,0E0,0E0,0E0,0E0,0E0,0E0,0E0,0E0,0E0,0E0,0E0,0E0,0E0],"parents":[2147483647,0,0,1,1,2,2,3,3,4,4,5,5,6,6,9,9,10,10,11,11,12,12,13,13,14,14,16,16,18,18,19,19,20,20,21,21,22,22,30,30,31,31,32,32,33,33,34,34,35,35,36,36,37,37],"right_children":[2,4,6,8,10,12,14,-1,-1,16,18,20,22,24,26,-1,28,-1,30,32,34,36,38,-1,-1,-1,-1,-1,-1,-1,40,42,44,46,48,50,52,54,-1,-1,-1,-1,-1,-1,-1,-1,-1,-1,-1,-1,-1,-1,-1,-1,-1],"split_conditions":[1.1946093E2,7.0920364E1,1.9113818E2,5.000516E1,9.390877E1,1.5455133E2,2.2420409E2,-1.3136657E0,-1.0630561E0,7.781227E1,-2.375191E0,1.321206E2,1.7197551E2,2.0311949E2,2.4427208E2,-8.0248034E-1,2.201708E0,-9.81157E-2,1.461292E8,1.2812305E2,1.4224718E2,1.61541E2,2.0321815E2,9.466025E-1,1.2021464E0,1.4540875E0,1.8836186E0,-1.1049061E-1,-6.012111E-1,-2.5547117E-1,5.6712785E0,3.3892815E1,8.72278E7,1.4760623E2,1.4842703E2,4.968266E0,5.0511813E0,1.690888E2,2.6023534E-1,-3.6245403E-1,-8.48692E-2,-2.3061244E-2,-1.3560498E-1,9.35936E-4,-6.582647E-2,8.1927955E-2,2.148346E-1,1.8847671E-1,2.7466047E-1,3.7551126E-1,5.1514816E-2,5.2183735E-1,7.161331E-2,4.4298458E-1,7.2294724E-1],"split_indices":[3,0,0,3,6,0,0,0,0,6,9,0,0,0,0,0,9,0,4,0,0,0,6,0,0,0,0,0,0,0,9,5,4,7,0,12,12,6,0,0,0,0,0,0,0,0,0,0,0,0,0,0,0,0,0],"split_type":[0,0,0,0,0,0,0,0,0,0,0,0,0,0,0,0,0,0,0,0,0,0,0,0,0,0,0,0,0,0,0,0,0,0,0,0,0,0,0,0,0,0,0,0,0,0,0,0,0,0,0,0,0,0,0],"sum_hessian":[1.264E3,4.79E2,7.85E2,3.46E2,1.33E2,5.47E2,2.38E2,2.16E2,1.3E2,7.1E1,6.2E1,2.76E2,2.71E2,1.3E2,1.08E2,4.3E1,2.8E1,4E0,5.8E1,9.4E1,1.82E2,1.33E2,1.38E2,4.3E1,8.7E1,8.5E1,2.3E1,1E0,2.7E1,3.5E1,2.3E1,6.2E1,3.2E1,5.6E1,1.26E2,3.6E1,9.7E1,1.36E2,2E0,2.2E1,1E0,5E0,5.7E1,1.9E1,1.3E1,5E1,6E0,8.2E1,4.4E1,3.5E1,1E0,9.6E1,1E0,7E0,1.29E2],"tree_param":{"num_deleted":"0","num_feature":"195","num_nodes":"55","size_leaf_vector":"1"}},{"base_weights":[-1.8634197E-1,-2.0006481E1,1.1313516E1,-2.2643555E1,-7.0653377E0,3.7411118E0,2.1549757E1,-2.4257826E1,-8.6283034E-1,-1.1211449E1,-5.332359E0,-4.3444005E-1,8.371932E0,1.6358896E1,2.7058996E1,-1.33028E0,-1.1444904E0,-1.07728384E-1,-5.758161E-1,-5.668793E0,-1.2503E-1,-1.1732329E0,6.8127286E-1,5.2669544E0,9.637576E0,7.0199716E-1,1.9264791E1,2.4154764E1,2.961874E1,-2.326784E-1,-3.4669766E-1,-1.4890612E0,2.8122857E0,5.5666122E0,1.3591614E0,8.399491E0,5.2277297E-1,1.9445219E1,1.3984032E-1,1.2170134E0,2.2500077E-1,1.4973663E0,5.5179775E-1,-1.3158531E-1,-2.8264536E-2,1.0127566E-1,1.9289371E-1,2.8102848E-1,4.842758E-2,-2.5923157E-2,1.2762947E-1,4.8623496E-1,3.6269245E-1,2.1437378E-1,9.7946256E-1],"categories":[],"categories_nodes":[],"categories_segments":[],"categories_sizes":[],"default_left":[0,0,0,0,0,0,0,0,0,0,0,0,0,0,0,0,0,0,0,0,0,0,0,0,0,0,0,0,0,0,0,0,0,0,0,0,0,0,0,0,0,0,0,0,0,0,0,0,0,0,0,0,0,0,0],"id":25,"left_children":[1,3,5,7,9,11,13,15,-1,17,19,21,23,25,27,-1,-1,-1,-1,29,-1,-1,31,33,35,-1,37,39,41,-1,-1,43,45,47,49,51,-1,53,-1,-1,-1,-1,-1,-1,-1,-1,-1,-1,-1,-1,-1,-1,-1,-1,-1],"loss_changes":[2.8058306E5,1.5250469E4,6.028932E4,2.8216094E3,4.9238403E2,8.689571E3,9.001469E3,2.8484375E2,0E0,2.9098389E1,3.6043823E1,6.1171187E3,7.7883496E2,8.7865625E2,4.3970312E2,0E0,0E0,0E0,0E0,2.6159912E1,0E0,0E0,1.0547264E3,6.3915283E1,5.4643555E1,0E0,1.5436719E2,1.6772656E2,1.3749219E2,0E0,0E0,1.1618999E2,8.384778E1,5.899414E0,1.5785344E1,1.9652832E1,0E0,6.344922E1,0E0,0E0,0E0,0E0,0E0,0E0,0E0,0E0,0E0,0E0,0E0,0E0,0E0,0E0,0E0,0E0,0E0],"parents":[2147483647,0,0,1,1,2,2,3,3,4,4,5,5,6,6,7,7,9,9,10,10,11,11,12,12,13,13,14,14,19,19,22,22,23,23,24,24,26,26,27,27,28,28,31,31,32,32,33,33,34,34,35,35,37,37],"right_children":[2,4,6,8,10,12,14,16,-1,18,20,22,24,26,28,-1,-1,-1,-1,30,-1,-1,32,34,36,-1,38,40,42,-1,-1,44,46,48,50,52,-1,54,-1,-1,-1,-1,-1,-1,-1,-1,-1,-1,-1,-1,-1,-1,-1,-1,-1],"split_conditions":[1.1809723E2,7.781227E1,1.7458813E2,5.7982735E1,9.390877E1,1.4600232E2,2.0961844E2,4.3090515E1,-8.6283034E-1,2.201708E0,5.1050644E0,5.962457E-1,1.564752E2,1.8977437E2,2.2570303E2,-1.33028E0,-1.1444904E0,-1.07728384E-1,-5.758161E-1,1.461292E8,-1.2503E-1,-1.1732329E0,1.3498862E2,4.968266E0,1.6699791E2,7.0199716E-1,2.1506612E2,7.505058E0,6.693974E0,-2.326784E-1,-3.4669766E-1,1.2546602E2,3.7674928E-1,4.1088567E0,8.05462E7,1.5102307E2,5.2277297E-1,2.5842898E0,1.3984032E-1,1.2170134E0,2.2500077E-1,1.4973663E0,5.5179775E-1,-1.3158531E-1,-2.8264536E-2,1.0127566E-1,1.9289371E-1,2.8102848E-1,4.842758E-2,-2.5923157E-2,1.2762947E-1,4.8623496E-1,3.6269245E-1,2.1437378E-1,9.7946256E-1],"split_indices":[6,6,6,6,6,6,6,6,0,9,9,12,6,6,6,0,0,0,0,4,0,0,6,12,6,0,7,12,12,0,0,6,8,9,4,11,0,12,0,0,0,0,0,0,0,0,0,0,0,0,0,0,0,0,0],"split_type":[0,0,0,0,0,0,0,0,0,0,0,0,0,0,0,0,0,0,0,0,0,0,0,0,0,0,0,0,0,0,0,0,0,0,0,0,0,0,0,0,0,0,0,0,0,0,0,0,0,0,0,0,0,0,0],"sum_hessian":[1.229E3,4.51E2,7.78E2,3.74E2,7.7E1,4.48E2,3.3E2,2.85E2,8.9E1,2.1E1,5.6E1,2.36E2,2.12E2,1.72E2,1.58E2,9.8E1,1.87E2,1E0,2E1,4.9E1,7E0,1E1,2.26E2,6.3E1,1.49E2,9.9E1,7.3E1,7.9E1,7.9E1,3E1,1.9E1,1.12E2,1.14E2,5.8E1,5E0,6.4E1,8.5E1,7.2E1,1E0,7.8E1,1E0,7.7E1,2E0,4.9E1,6.3E1,6.7E1,4.7E1,5.7E1,1E0,2E0,3E0,2.6E1,3.8E1,1E0,7.1E1],"tree_param":{"num_deleted":"0","num_feature":"195","num_nodes":"55","size_leaf_vector":"1"}},{"base_weights":[-5.356192E-2,-1.9598103E1,1.0986298E1,-2.2701817E1,-1.1491812E1,4.764837E0,2.2086836E1,-1.2815889E0,-1.0625619E0,-1.4628051E1,-6.1455936E0,6.232268E-1,8.984786E0,1.7076872E1,2.6833746E1,-7.596858E-1,-5.296258E-1,-4.6517226E-1,-5.36734E0,-2.069355E0,2.5740697E0,6.4698396E0,1.0642771E1,7.490949E-1,9.768118E-1,1.2522448E0,1.6120268E0,-5.97168E-2,-2.7146533E-1,-3.0301528E0,-1.1802164E0,1.3384761E0,3.198323E0,5.1554804E0,7.2605486E0,4.816389E-1,1.1696837E1,-1.825277E-1,-1.07963085E-1,-5.15741E-2,-2.2895204E-1,7.6925896E-2,-6.608277E-2,1.736791E-1,1.06398776E-1,2.7948546E-1,1.578489E-1,3.7103122E-1,7.627716E-2,5.9668887E-1,2.3986816E-1],"categories":[],"categories_nodes":[],"categories_segments":[],"categories_sizes":[],"default_left":[0,0,0,0,0,0,0,0,0,0,0,0,0,0,0,0,0,0,0,0,0,0,0,0,0,0,0,0,0,0,0,0,0,0,0,0,0,0,0,0,0,0,0,0,0,0,0,0,0,0,0],"id":26,"left_children":[1,3,5,7,9,11,13,-1,-1,15,17,19,21,23,25,-1,-1,-1,27,29,31,33,35,-1,-1,-1,-1,-1,-1,37,39,41,43,45,47,-1,49,-1,-1,-1,-1,-1,-1,-1,-1,-1,-1,-1,-1,-1,-1],"loss_changes":[2.6539972E5,1.0892891E4,5.4163742E4,7.918906E2,1.9955918E3,8.815675E3,6.2262812E3,0E0,0E0,4.2226562E0,6.069507E1,1.350297E3,9.650215E2,4.11375E2,5.4697656E2,0E0,0E0,0E0,8.059082E-1,8.6581085E1,1.0837799E2,6.23667E1,3.5289062E1,0E0,0E0,0E0,0E0,0E0,0E0,1.6767975E1,2.1791832E1,2.9812973E1,1.8680542E1,1.44279785E1,4.0206543E1,0E0,4.55459E1,0E0,0E0,0E0,0E0,0E0,0E0,0E0,0E0,0E0,0E0,0E0,0E0,0E0,0E0],"parents":[2147483647,0,0,1,1,2,2,3,3,4,4,5,5,6,6,9,9,10,10,11,11,12,12,13,13,14,14,18,18,19,19,20,20,21,21,22,22,29,29,30,30,31,31,32,32,33,33,34,34,36,36],"right_children":[2,4,6,8,10,12,14,-1,-1,16,18,20,22,24,26,-1,-1,-1,28,30,32,34,36,-1,-1,-1,-1,-1,-1,38,40,42,44,46,48,-1,50,-1,-1,-1,-1,-1,-1,-1,-1,-1,-1,-1,-1,-1,-1],"split_conditions":[1.1600184E2,6.625906E1,1.8132785E2,4.277229E1,9.270551E1,1.4872255E2,2.1552632E2,-1.2815889E0,-1.0625619E0,7.781227E1,9.010252E1,1.3155466E2,1.6440555E2,1.9956152E2,2.4094025E2,-7.596858E-1,-5.296258E-1,-4.6517226E-1,4.69649E7,1.242708E2,1.4092256E2,1.5455133E2,1.7197551E2,7.490949E-1,9.768118E-1,1.2522448E0,1.6120268E0,-5.97168E-2,-2.7146533E-1,1.1469597E2,1.79994E8,1.375647E8,9.1183E7,4.2577553E0,4.968266E0,4.816389E-1,4.4719725E0,-1.825277E-1,-1.07963085E-1,-5.15741E-2,-2.2895204E-1,7.6925896E-2,-6.608277E-2,1.736791E-1,1.06398776E-1,2.7948546E-1,1.578489E-1,3.7103122E-1,7.627716E-2,5.9668887E-1,2.3986816E-1],"split_indices":[0,1,0,0,0,0,1,0,0,6,7,0,0,1,0,0,0,0,4,0,0,0,0,0,0,0,0,0,0,11,4,4,4,12,12,0,12,0,0,0,0,0,0,0,0,0,0,0,0,0,0],"split_type":[0,0,0,0,0,0,0,0,0,0,0,0,0,0,0,0,0,0,0,0,0,0,0,0,0,0,0,0,0,0,0,0,0,0,0,0,0,0,0,0,0,0,0,0,0,0,0,0,0,0,0],"sum_hessian":[1.228E3,4.43E2,7.85E2,3.19E2,1.24E2,5.04E2,2.81E2,1E2,2.19E2,7.7E1,4.7E1,2.55E2,2.49E2,1.39E2,1.42E2,6.5E1,1.2E1,7E0,4E1,1.07E2,1.48E2,1.01E2,1.48E2,7.9E1,6E1,1.11E2,3.1E1,1E0,3.9E1,5E1,5.7E1,5.1E1,9.7E1,4.1E1,6E1,8.1E1,6.7E1,2.7E1,2.3E1,5.6E1,1E0,4.8E1,3E0,7.5E1,2.2E1,3.2E1,9E0,5.8E1,2E0,6.4E1,3E0],"tree_param":{"num_deleted":"0","num_feature":"195","num_nodes":"51","size_leaf_vector":"1"}},{"base_weights":[-3.1331268E-1,-1.8038794E1,1.0656092E1,-2.1215868E1,-9.34253E0,4.653445E0,2.1052368E1,-1.1396295E0,-9.2340946E-1,-6.65718E-1,-5.4016404E0,9.464929E-1,9.010094E0,1.6770454E1,2.5684717E1,-7.085171E0,-4.3492227E0,-1.6798395E0,2.8004827E0,6.992023E0,1.046948E1,1.4173499E1,9.619654E-1,1.2015697E0,1.5299264E0,-1.2982893E-1,-7.5789423E0,-2.8872872E-2,-4.411881E0,-2.4600322E0,-8.6072105E-1,1.8155413E0,3.6960385E0,5.6775455E0,4.0411377E-1,4.5635262E-1,1.1197256E1,1.9028702E-1,7.126631E-1,-3.8805422E-1,-8.590241E-2,-3.1946756E-2,-2.2372977E-1,-9.123256E-2,-1.8361227E-1,-1.2210408E-2,-6.851127E-2,1.12522416E-1,-2.3009432E-2,6.1368304E-3,1.8893096E-1,2.9770678E-1,1.3328628E-1,5.633778E-1,1.3034745E-1],"categories":[],"categories_nodes":[],"categories_segments":[],"categories_sizes":[],"default_left":[0,0,0,0,0,0,0,0,0,0,0,0,0,0,0,0,0,0,0,0,0,0,0,0,0,0,0,0,0,0,0,0,0,0,0,0,0,0,0,0,0,0,0,0,0,0,0,0,0,0,0,0,0,0,0],"id":27,"left_children":[1,3,5,7,9,11,13,-1,-1,-1,15,17,19,21,23,25,27,29,31,33,35,37,-1,-1,-1,-1,39,-1,41,43,45,47,49,51,-1,-1,53,-1,-1,-1,-1,-1,-1,-1,-1,-1,-1,-1,-1,-1,-1,-1,-1,-1,-1],"loss_changes":[2.4363225E5,1.3020656E4,4.819079E4,1.07475E3,1.9535527E3,7.9322393E3,5.1614062E3,0E0,0E0,0E0,8.2177E1,1.3053395E3,5.8366797E2,6.723281E2,3.26E2,2.8425049E1,5.3563232E0,6.715903E1,1.290188E2,8.7677734E1,1.3670898E1,4.033203E-1,0E0,0E0,0E0,0E0,4.3442383E0,0E0,4.75885E0,3.3683167E1,1.644865E1,7.8140015E1,2.1487549E1,1.9803833E1,0E0,0E0,1.1396484E1,0E0,0E0,0E0,0E0,0E0,0E0,0E0,0E0,0E0,0E0,0E0,0E0,0E0,0E0,0E0,0E0,0E0,0E0],"parents":[2147483647,0,0,1,1,2,2,3,3,4,4,5,5,6,6,10,10,11,11,12,12,13,13,14,14,15,15,16,16,17,17,18,18,19,19,20,20,21,21,26,26,28,28,29,29,30,30,31,31,32,32,33,33,36,36],"right_children":[2,4,6,8,10,12,14,-1,-1,-1,16,18,20,22,24,26,28,30,32,34,36,38,-1,-1,-1,-1,40,-1,42,44,46,48,50,52,-1,-1,54,-1,-1,-1,-1,-1,-1,-1,-1,-1,-1,-1,-1,-1,-1,-1,-1,-1,-1],"split_conditions":[1.20191734E2,6.936505E1,1.8208836E2,4.936469E1,9.270551E1,1.510557E2,2.1753464E2,-1.1396295E0,-9.2340946E-1,-6.65718E-1,1.1068555E2,1.321206E2,1.6779504E2,1.9700778E2,2.4094025E2,-2.9187834E-1,-2.8043537E0,1.23674515E2,1.4344695E2,1.5693134E2,1.7197551E2,2.5842898E0,9.619654E-1,1.2015697E0,1.5299264E0,-1.2982893E-1,4.269097E0,-2.8872872E-2,2.8050296E0,3.541216E0,3.0751126E0,1.4320735E2,-4.898653E0,1.5601398E2,4.0411377E-1,4.5635262E-1,1.9018977E2,1.9028702E-1,7.126631E-1,-3.8805422E-1,-8.590241E-2,-3.1946756E-2,-2.2372977E-1,-9.123256E-2,-1.8361227E-1,-1.2210408E-2,-6.851127E-2,1.12522416E-1,-2.3009432E-2,6.1368304E-3,1.8893096E-1,2.9770678E-1,1.3328628E-1,5.633778E-1,1.3034745E-1],"split_indices":[1,3,0,3,0,0,0,0,0,0,3,0,0,0,0,9,9,2,0,2,0,12,0,0,0,0,9,0,12,12,12,3,8,2,0,0,1,0,0,0,0,0,0,0,0,0,0,0,0,0,0,0,0,0,0],"split_type":[0,0,0,0,0,0,0,0,0,0,0,0,0,0,0,0,0,0,0,0,0,0,0,0,0,0,0,0,0,0,0,0,0,0,0,0,0,0,0,0,0,0,0,0,0,0,0,0,0,0,0,0,0,0,0],"sum_hessian":[1.251E3,4.78E2,7.73E2,3.49E2,1.29E2,4.91E2,2.82E2,2.17E2,1.32E2,6.3E1,6.6E1,2.66E2,2.25E2,1.49E2,1.33E2,2.3E1,4.3E1,1.1E2,1.56E2,9.7E1,1.28E2,7.6E1,7.3E1,1.04E2,2.9E1,3E0,2E1,1E0,4.2E1,5.5E1,5.5E1,7.6E1,8E1,4.7E1,5E1,5E1,7.8E1,1E0,7.5E1,1.9E1,1E0,1E0,4.1E1,3.8E1,1.7E1,2.6E1,2.9E1,6.4E1,1.2E1,2E0,7.8E1,4.2E1,5E0,7.7E1,1E0],"tree_param":{"num_deleted":"0","num_feature":"195","num_nodes":"55","size_leaf_vector":"1"}},{"base_weights":[1.4033131E-1,-1.6528065E1,1.0747959E1,-1.9698223E1,-6.9049225E0,4.8500547E0,2.0600182E1,-2.122526E1,-7.983465E-1,-5.3726274E-1,-4.5451765E0,1.619684E0,8.969445E0,1.675938E1,2.5333328E1,-1.1792538E0,-1.008195E0,-6.068054E0,-3.8688872E0,-4.788754E-1,3.4644835E0,7.3055105E0,1.00651E1,1.4072661E1,9.6014273E-1,1.1881186E0,1.6262419E0,-1.01081945E-1,-6.574244E0,-0E0,-3.9421153E0,-1.5301425E0,5.558934E-1,2.7872128E0,4.087446E0,4.3245623E-1,6.5260053E0,1.0141323E1,1.7091243E-1,7.075452E-1,1.8283157E-1,-3.38132E-1,-6.707783E-2,-2.0202759E-1,-3.447787E-2,-9.80128E-2,-2.6613964E-2,6.0114827E-2,-1.3537756E-2,6.1715424E-2,1.5473852E-1,-0E0,2.070359E-1,1.6806684E-1,3.4030646E-1,5.092582E-1,1.0731888E-1],"categories":[],"categories_nodes":[],"categories_segments":[],"categories_sizes":[],"default_left":[0,0,0,0,0,0,0,0,0,0,0,0,0,0,0,0,0,0,0,0,0,0,0,0,0,0,0,0,0,0,0,0,0,0,0,0,0,0,0,0,0,0,0,0,0,0,0,0,0,0,0,0,0,0,0,0,0],"id":28,"left_children":[1,3,5,7,9,11,13,15,-1,-1,17,19,21,23,25,-1,-1,27,29,31,33,35,37,39,-1,-1,-1,-1,41,-1,43,45,47,49,51,-1,53,55,-1,-1,-1,-1,-1,-1,-1,-1,-1,-1,-1,-1,-1,-1,-1,-1,-1,-1,-1],"loss_changes":[2.2278123E5,1.4799078E4,4.4630117E4,1.7392969E3,1.058167E3,6.407536E3,4.789953E3,1.4875E2,0E0,0E0,5.1887573E1,1.0561785E3,3.0428125E2,7.7664453E2,6.3378125E2,0E0,0E0,2.74729E1,1.7062805E1,1.4057849E2,4.6347534E1,2.8135254E1,2.1884766E1,5.3632812E0,0E0,0E0,0E0,0E0,5.606018E0,0E0,1.2778259E1,2.5178772E1,3.552393E1,2.888086E1,1.4852539E1,0E0,2.5228271E1,1.50859375E1,0E0,0E0,0E0,0E0,0E0,0E0,0E0,0E0,0E0,0E0,0E0,0E0,0E0,0E0,0E0,0E0,0E0,0E0,0E0],"parents":[2147483647,0,0,1,1,2,2,3,3,4,4,5,5,6,6,7,7,10,10,11,11,12,12,13,13,14,14,17,17,18,18,19,19,20,20,21,21,22,22,23,23,28,28,30,30,31,31,32,32,33,33,34,34,36,36,37,37],"right_children":[2,4,6,8,10,12,14,16,-1,-1,18,20,22,24,26,-1,-1,28,30,32,34,36,38,40,-1,-1,-1,-1,42,-1,44,46,48,50,52,-1,54,56,-1,-1,-1,-1,-1,-1,-1,-1,-1,-1,-1,-1,-1,-1,-1,-1,-1,-1,-1],"split_conditions":[1.19532104E2,7.5398026E1,1.822016E2,5.318398E1,9.390877E1,1.5166832E2,2.2464453E2,4.1771935E1,-7.983465E-1,-5.3726274E-1,1.0970311E2,1.4137611E2,1.7069421E2,2.0510721E2,2.4462123E2,-1.1792538E0,-1.008195E0,1.388088E8,2.969974E1,1.2924184E2,1.4788437E2,-1.078649E0,1.8631105E2,1.219465E8,9.6014273E-1,1.1881186E0,1.6262419E0,-1.01081945E-1,1.1809723E2,-0E0,7.224839E1,5.777432E1,8.97264E7,4.2255E1,1.477149E2,4.3245623E-1,-5.830609E-2,5.93438E0,1.7091243E-1,7.075452E-1,1.8283157E-1,-3.38132E-1,-6.707783E-2,-2.0202759E-1,-3.447787E-2,-9.80128E-2,-2.6613964E-2,6.0114827E-2,-1.3537756E-2,6.1715424E-2,1.5473852E-1,-0E0,2.070359E-1,1.6806684E-1,3.4030646E-1,5.092582E-1,1.0731888E-1],"split_indices":[2,2,2,1,6,2,1,1,0,0,2,1,1,1,2,0,0,4,5,3,1,9,1,4,0,0,0,0,6,0,5,5,4,5,10,0,9,9,0,0,0,0,0,0,0,0,0,0,0,0,0,0,0,0,0,0,0],"split_type":[0,0,0,0,0,0,0,0,0,0,0,0,0,0,0,0,0,0,0,0,0,0,0,0,0,0,0,0,0,0,0,0,0,0,0,0,0,0,0,0,0,0,0,0,0,0,0,0,0,0,0,0,0,0,0,0,0],"sum_hessian":[1.258E3,4.89E2,7.69E2,3.67E2,1.22E2,4.82E2,2.87E2,2.57E2,1.1E2,4.5E1,7.7E1,2.71E2,2.11E2,1.61E2,1.26E2,7.3E1,1.84E2,2.1E1,5.6E1,1.27E2,1.44E2,8.7E1,1.24E2,8E1,8.1E1,1.07E2,1.9E1,3E0,1.8E1,1E0,5.5E1,6.3E1,6.4E1,7.2E1,7.2E1,2.8E1,5.9E1,1.22E2,2E0,7.9E1,1E0,1.7E1,1E0,5.3E1,2E0,4.3E1,2E1,3.6E1,2.8E1,1.3E1,5.9E1,1E0,7.1E1,6E0,5.3E1,1.21E2,1E0],"tree_param":{"num_deleted":"0","num_feature":"195","num_nodes":"57","size_leaf_vector":"1"}},{"base_weights":[2.5078478E-1,-1.6584154E1,9.5343E0,-1.9461018E1,-9.685339E0,3.747755E0,1.8558847E1,-1.0672054E0,-9.0019673E-1,-1.2396712E1,-5.605632E0,5.135085E-1,7.4718933E0,1.4850513E1,2.371801E1,-6.529752E-1,-4.698641E-1,-3.209287E0,-6.2590413E0,-1.685196E0,2.2399173E0,5.0776978E0,8.624711E0,6.1582863E-1,1.7246643E1,1.0631187E0,1.3795766E0,-3.6636052E0,5.492134E-2,-7.3823714E0,-4.629259E0,-2.4639132E0,-7.218053E-1,6.2487334E-1,2.6208456E0,5.199754E0,2.1801362E0,7.5909944E0,4.6579552E-1,8.676414E-1,1.7444344E-1,-7.582503E-2,-2.0530434E-1,-7.5115584E-2,-3.7793165E-1,-2.3914139E-1,-3.0286217E-2,-9.6991874E-2,-1.6767599E-1,2.0609284E-2,-4.4127904E-2,-3.3314582E-3,1.298667E-1,9.116127E-2,1.5983127E-1,3.6424378E-1,2.3924474E-1,4.2304993E-3,1.2789325E-1,3.8356698E-1,4.470558E-2],"categories":[],"categories_nodes":[],"categories_segments":[],"categories_sizes":[],"default_left":[0,0,0,0,0,0,0,0,0,0,0,0,0,0,0,0,0,0,0,0,0,0,0,0,0,0,0,0,0,0,0,0,0,0,0,0,0,0,0,0,0,0,0,0,0,0,0,0,0,0,0,0,0,0,0,0,0,0,0,0,0],"id":29,"left_children":[1,3,5,7,9,11,13,-1,-1,15,17,19,21,23,25,-1,-1,27,29,31,33,35,37,-1,39,-1,-1,41,-1,43,45,47,49,51,53,55,57,59,-1,-1,-1,-1,-1,-1,-1,-1,-1,-1,-1,-1,-1,-1,-1,-1,-1,-1,-1,-1,-1,-1,-1],"loss_changes":[1.9567014E5,8.628836E3,4.2061586E4,4.5485938E2,1.3927012E3,5.930248E3,5.655047E3,0E0,0E0,2.309961E1,6.1297485E1,1.0099556E3,5.8141016E2,9.02125E2,6.2546875E2,0E0,0E0,3.2705826E1,3.671216E1,8.440314E1,8.840662E1,1.2206055E1,3.0149414E1,0E0,6.489453E1,0E0,0E0,3.3125305E0,0E0,7.9520264E0,6.766449E0,2.0686157E1,1.0442738E1,4.2357254E1,4.6772278E1,2.2255005E1,2.4200478E0,2.4908447E1,0E0,0E0,0E0,0E0,0E0,0E0,0E0,0E0,0E0,0E0,0E0,0E0,0E0,0E0,0E0,0E0,0E0,0E0,0E0,0E0,0E0,0E0,0E0],"parents":[2147483647,0,0,1,1,2,2,3,3,4,4,5,5,6,6,9,9,10,10,11,11,12,12,13,13,14,14,17,17,18,18,19,19,20,20,21,21,22,22,24,24,27,27,29,29,30,30,31,31,32,32,33,33,34,34,35,35,36,36,37,37],"right_children":[2,4,6,8,10,12,14,-1,-1,16,18,20,22,24,26,-1,-1,28,30,32,34,36,38,-1,40,-1,-1,42,-1,44,46,48,50,52,54,56,58,60,-1,-1,-1,-1,-1,-1,-1,-1,-1,-1,-1,-1,-1,-1,-1,-1,-1,-1,-1,-1,-1,-1,-1],"split_conditions":[1.1600184E2,6.45082E1,1.7903226E2,4.473059E1,9.270551E1,1.4872255E2,2.1978056E2,-1.0672054E0,-9.0019673E-1,7.781227E1,-1.3829482E-1,1.321206E2,1.61541E2,1.9330751E2,2.3174199E2,-6.529752E-1,-4.698641E-1,-9.045772E-3,1.1068555E2,1.23674515E2,1.3897992E2,4.968266E0,1.6954926E2,6.1582863E-1,2.2362613E2,1.0631187E0,1.3795766E0,4.0786543E0,5.492134E-2,9.115196E1,7.224839E1,3.4968002E0,-3.6367924E0,1.5316357E2,5.131291E1,-2.3082795E0,1.4980724E2,4.752547E0,4.6579552E-1,8.676414E-1,1.7444344E-1,-7.582503E-2,-2.0530434E-1,-7.5115584E-2,-3.7793165E-1,-2.3914139E-1,-3.0286217E-2,-9.6991874E-2,-1.6767599E-1,2.0609284E-2,-4.4127904E-2,-3.3314582E-3,1.298667E-1,9.116127E-2,1.5983127E-1,3.6424378E-1,2.3924474E-1,4.2304993E-3,1.2789325E-1,3.8356698E-1,4.470558E-2],"split_indices":[0,0,3,0,0,0,0,0,0,6,9,0,0,6,2,0,0,8,3,2,0,12,0,0,1,0,0,12,0,2,5,12,9,10,5,8,0,12,0,0,0,0,0,0,0,0,0,0,0,0,0,0,0,0,0,0,0,0,0,0,0],"split_type":[0,0,0,0,0,0,0,0,0,0,0,0,0,0,0,0,0,0,0,0,0,0,0,0,0,0,0,0,0,0,0,0,0,0,0,0,0,0,0,0,0,0,0,0,0,0,0,0,0,0,0,0,0,0,0,0,0,0,0,0,0],"sum_hessian":[1.25E3,4.44E2,8.06E2,3.12E2,1.32E2,4.92E2,3.14E2,1.3E2,1.82E2,7.8E1,5.4E1,2.64E2,2.28E2,1.85E2,1.29E2,6.1E1,1.7E1,1.3E1,4.1E1,1.16E2,1.48E2,7.6E1,1.52E2,9.3E1,9.2E1,8.3E1,4.6E1,1.2E1,1E0,2.2E1,1.9E1,6.3E1,5.3E1,2.9E1,1.19E2,7.2E1,4E0,6.6E1,8.6E1,9.1E1,1E0,3E0,9E0,1E0,2.1E1,1.8E1,1E0,4.2E1,2.1E1,6E0,4.7E1,2.2E1,7E0,5.2E1,6.7E1,9E0,6.3E1,1E0,3E0,6.5E1,1E0],"tree_param":{"num_deleted":"0","num_feature":"195","num_nodes":"61","size_leaf_vector":"1"}},{"base_weights":[-1.7366338E-1,-1.5474961E1,9.15014E0,-1.8024971E1,-7.2999296E0,4.7746763E0,1.8754183E1,-1.92178E1,-7.451789E-1,-5.4531413E-1,-4.745633E0,1.2811465E0,8.521523E0,1.5243336E1,2.2560678E1,-1.0763382E0,-9.1450226E-1,-6.045782E0,-3.7297843E0,-1.3508513E0,2.7488678E0,6.8810177E0,9.858902E0,1.3264422E1,8.533295E-1,1.0579438E0,1.3835267E0,-9.92658E-2,-6.2625365E0,-1.7684747E-2,-3.7928443E0,-2.3969064E0,-7.335259E-1,1.9410814E0,3.8662472E0,5.584837E0,7.397979E0,4.3928972E-1,1.0827016E1,1.5244523E-1,6.6834927E-1,-3.1989813E-1,-5.9422303E-2,-1.89085E-2,-1.9289415E-1,-0E0,-1.2384027E-1,-3.0064562E-2,-2.141077E-1,8.55956E-2,2.2216359E-1,1.9497365E-1,2.4349594E-2,3.1022304E-1,1.841807E-1,4.3587875E-2,3.731205E-1,5.5207354E-1,2.2551881E-1],"categories":[],"categories_nodes":[],"categories_segments":[],"categories_sizes":[],"default_left":[0,0,0,0,0,0,0,0,0,0,0,0,0,0,0,0,0,0,0,0,0,0,0,0,0,0,0,0,0,0,0,0,0,0,0,0,0,0,0,0,0,0,0,0,0,0,0,0,0,0,0,0,0,0,0,0,0,0,0],"id":30,"left_children":[1,3,5,7,9,11,13,15,-1,-1,17,19,21,23,25,-1,-1,27,29,31,33,35,37,39,-1,-1,-1,-1,41,-1,43,45,47,49,51,53,55,-1,57,-1,-1,-1,-1,-1,-1,-1,-1,-1,-1,-1,-1,-1,-1,-1,-1,-1,-1,-1,-1],"loss_changes":[1.7633762E5,9.611883E3,3.2171691E4,1.0220156E3,9.813379E2,6.9086426E3,2.8445703E3,1.3047656E2,0E0,0E0,6.2374023E1,1.066748E3,4.8325586E2,2.2028516E2,1.9952344E2,0E0,0E0,8.086487E0,5.313904E0,6.0606445E1,1.4935254E2,3.1260742E1,3.84375E1,2.0189453E1,0E0,0E0,0E0,0E0,6.4693604E0,0E0,5.3064575E0,7.884018E0,2.5015556E1,4.9525574E1,4.104126E0,1.6966675E1,2.3387695E1,0E0,3.4538086E1,0E0,0E0,0E0,0E0,0E0,0E0,0E0,0E0,0E0,0E0,0E0,0E0,0E0,0E0,0E0,0E0,0E0,0E0,0E0,0E0],"parents":[2147483647,0,0,1,1,2,2,3,3,4,4,5,5,6,6,7,7,10,10,11,11,12,12,13,13,14,14,17,17,18,18,19,19,20,20,21,21,22,22,23,23,28,28,30,30,31,31,32,32,33,33,34,34,35,35,36,36,38,38],"right_children":[2,4,6,8,10,12,14,16,-1,-1,18,20,22,24,26,-1,-1,28,30,32,34,36,38,40,-1,-1,-1,-1,42,-1,44,46,48,50,52,54,56,-1,58,-1,-1,-1,-1,-1,-1,-1,-1,-1,-1,-1,-1,-1,-1,-1,-1,-1,-1,-1,-1],"split_conditions":[1.20191734E2,7.4694084E1,1.8835535E2,5.2093254E1,9.270551E1,1.5455133E2,2.2158762E2,4.130226E1,-7.451789E-1,-5.4531413E-1,1.1148075E2,1.3155466E2,1.7066562E2,2.0629005E2,2.4089484E2,-1.0763382E0,-9.1450226E-1,-2.9187834E-1,1.0970311E2,1.2256701E2,1.4589653E2,1.61541E2,1.7875534E2,2.5842898E0,8.533295E-1,1.0579438E0,1.3835267E0,-9.92658E-2,1.1809723E2,-1.7684747E-2,-2.8043537E0,2.969974E1,1.3368198E2,5.332422E0,4.1088567E0,1.6116844E2,1.5693134E2,4.3928972E-1,1.9018977E2,1.5244523E-1,6.6834927E-1,-3.1989813E-1,-5.9422303E-2,-1.89085E-2,-1.9289415E-1,-0E0,-1.2384027E-1,-3.0064562E-2,-2.141077E-1,8.55956E-2,2.2216359E-1,1.9497365E-1,2.4349594E-2,3.1022304E-1,1.841807E-1,4.3587875E-2,3.731205E-1,5.5207354E-1,2.2551881E-1],"split_indices":[1,0,0,0,0,0,0,0,0,0,0,0,0,0,2,0,0,9,2,2,0,0,1,12,0,0,0,0,6,0,9,5,1,12,9,1,2,0,1,0,0,0,0,0,0,0,0,0,0,0,0,0,0,0,0,0,0,0,0],"split_type":[0,0,0,0,0,0,0,0,0,0,0,0,0,0,0,0,0,0,0,0,0,0,0,0,0,0,0,0,0,0,0,0,0,0,0,0,0,0,0,0,0,0,0,0,0,0,0,0,0,0,0,0,0,0,0,0,0,0,0],"sum_hessian":[1.234E3,4.67E2,7.67E2,3.55E2,1.12E2,5.28E2,2.39E2,2.53E2,1.02E2,4.5E1,6.7E1,2.74E2,2.54E2,1.27E2,1.12E2,6.6E1,1.87E2,2.7E1,4E1,9.8E1,1.76E2,1.17E2,1.37E2,6.5E1,6.2E1,9.2E1,2E1,2E0,2.5E1,1E0,3.9E1,3.5E1,6.3E1,1.04E2,7.2E1,3.7E1,8E1,7E1,6.7E1,1E0,6.4E1,2.4E1,1E0,1E0,3.8E1,1E0,3.4E1,6.2E1,1E0,9.7E1,7E0,7.1E1,1E0,2.6E1,1.1E1,1E0,7.9E1,6.4E1,3E0],"tree_param":{"num_deleted":"0","num_feature":"195","num_nodes":"59","size_leaf_vector":"1"}},{"base_weights":[-1.3379509E-2,-1.5039525E1,8.585992E0,-1.7550423E1,-8.346698E0,3.495964E0,1.6942093E1,-1.0057691E0,-1.6442917E1,-1.07502365E1,-4.3891644E0,3.7740472E-1,6.917299E0,1.3548103E1,2.0991093E1,-8.494434E-1,-7.197637E-1,-5.8118546E-1,-4.158082E-1,-2.9577549E0,-4.8100133E0,-1.2970178E0,2.4426203E0,5.076637E0,8.273165E0,1.1193049E1,1.5118995E1,9.843675E-1,1.2815106E0,-3.403338E0,5.837059E-2,-1.1626341E-1,-5.2127867E0,-2.0604253E0,-2.2882393E-1,1.575637E0,2.822402E0,4.2497034E0,5.6710877E0,4.1530386E-1,8.571892E-2,1.1411812E1,2.302765E-1,4.3217188E-1,7.6871586E-1,-6.910839E-2,-1.9107361E-1,-2.647692E-1,-5.793667E-2,-7.707395E-2,-1.503437E-1,-2.2469608E-2,2.009313E-1,1.297447E-1,1.3559553E-2,1.5952222E-1,7.7607766E-2,2.34658E-1,1.16314285E-1,2.909757E-1,4.7119394E-2,1.4863396E-1,5.7435304E-1],"categories":[],"categories_nodes":[],"categories_segments":[],"categories_sizes":[],"default_left":[0,0,0,0,0,0,0,0,0,0,0,0,0,0,0,0,0,0,0,0,0,0,0,0,0,0,0,0,0,0,0,0,0,0,0,0,0,0,0,0,0,0,0,0,0,0,0,0,0,0,0,0,0,0,0,0,0,0,0,0,0,0,0],"id":31,"left_children":[1,3,5,7,9,11,13,-1,15,17,19,21,23,25,27,-1,-1,-1,-1,29,31,33,35,37,39,41,43,-1,-1,45,-1,-1,47,49,51,53,55,57,59,-1,-1,61,-1,-1,-1,-1,-1,-1,-1,-1,-1,-1,-1,-1,-1,-1,-1,-1,-1,-1,-1,-1,-1],"loss_changes":[1.6010103E5,7.419625E3,3.3446387E4,5.798672E2,1.1342568E3,5.2325327E3,3.7935312E3,0E0,1.3398438E0,5.707422E1,1.1407166E1,8.959162E2,5.353164E2,4.2803906E2,2.8321484E2,0E0,0E0,0E0,0E0,3.0824524E1,2.0138245E1,1.1499567E2,3.1548584E1,2.1079346E1,9.459961E0,4.0310547E1,1.3826172E1,0E0,0E0,3.1028442E0,0E0,0E0,6.8255615E-1,3.385675E1,5.7169323E1,4.8386726E1,2.9609497E1,2.5661438E1,3.0439087E1,0E0,0E0,1.1708984E0,0E0,0E0,0E0,0E0,0E0,0E0,0E0,0E0,0E0,0E0,0E0,0E0,0E0,0E0,0E0,0E0,0E0,0E0,0E0,0E0,0E0],"parents":[2147483647,0,0,1,1,2,2,3,3,4,4,5,5,6,6,8,8,9,9,10,10,11,11,12,12,13,13,14,14,19,19,20,20,21,21,22,22,23,23,24,24,25,25,26,26,29,29,32,32,33,33,34,34,35,35,36,36,37,37,38,38,41,41],"right_children":[2,4,6,8,10,12,14,-1,16,18,20,22,24,26,28,-1,-1,-1,-1,30,32,34,36,38,40,42,44,-1,-1,46,-1,-1,48,50,52,54,56,58,60,-1,-1,62,-1,-1,-1,-1,-1,-1,-1,-1,-1,-1,-1,-1,-1,-1,-1,-1,-1,-1,-1,-1,-1],"split_conditions":[1.1600184E2,6.727593E1,1.81586E2,4.206273E1,9.390877E1,1.4842703E2,2.1753464E2,-1.0057691E0,5.1071793E1,7.781227E1,-1.3829482E-1,1.3482158E2,1.6440555E2,1.9182945E2,2.4094025E2,-8.494434E-1,-7.197637E-1,-5.8118546E-1,-4.158082E-1,-9.045772E-3,2.977573E0,1.2630399E2,4.6799637E1,1.5455133E2,5.93438E0,1.219465E8,2.7997296E0,9.843675E-1,1.2815106E0,4.0786543E0,5.837059E-2,-1.1626341E-1,2.17562E8,3.541216E0,5.219488E0,-2.6981099E0,2.3019774E0,4.270062E0,4.968266E0,4.1530386E-1,8.571892E-2,2.5842898E0,2.302765E-1,4.3217188E-1,7.6871586E-1,-6.910839E-2,-1.9107361E-1,-2.647692E-1,-5.793667E-2,-7.707395E-2,-1.503437E-1,-2.2469608E-2,2.009313E-1,1.297447E-1,1.3559553E-2,1.5952222E-1,7.7607766E-2,2.34658E-1,1.16314285E-1,2.909757E-1,4.7119394E-2,1.4863396E-1,5.7435304E-1],"split_indices":[0,2,1,0,6,0,0,0,11,6,9,2,0,0,0,0,0,0,0,8,12,2,5,0,9,4,12,0,0,12,0,0,4,12,12,8,9,12,12,0,0,12,0,0,0,0,0,0,0,0,0,0,0,0,0,0,0,0,0,0,0,0,0],"split_type":[0,0,0,0,0,0,0,0,0,0,0,0,0,0,0,0,0,0,0,0,0,0,0,0,0,0,0,0,0,0,0,0,0,0,0,0,0,0,0,0,0,0,0,0,0,0,0,0,0,0,0,0,0,0,0,0,0,0,0,0,0,0,0],"sum_hessian":[1.237E3,4.5E2,7.87E2,3.26E2,1.24E2,4.9E2,2.97E2,9.3E1,2.33E2,7.6E1,4.8E1,2.57E2,2.33E2,1.64E2,1.33E2,1.78E2,5.5E1,5.3E1,2.3E1,1.3E1,3.5E1,1.42E2,1.15E2,1.01E2,1.32E2,6.9E1,9.5E1,1.08E2,2.5E1,1.2E1,1E0,6E0,2.9E1,8.2E1,6E1,3.7E1,7.8E1,4.6E1,5.5E1,1.31E2,1E0,6.6E1,3E0,5E0,9E1,3E0,9E0,2.8E1,1E0,5.5E1,2.7E1,5.8E1,2E0,2E1,1.7E1,5.9E1,1.9E1,3.6E1,1E1,5.3E1,2E0,1E0,6.5E1],"tree_param":{"num_deleted":"0","num_feature":"195","num_nodes":"63","size_leaf_vector":"1"}},{"base_weights":[-2.8658478E-2,-1.4188968E1,8.4138365E0,-1.678933E1,-8.233805E0,3.934045E0,1.6950043E1,-9.5230675E-1,-7.84204E-1,-1.0897444E1,-4.501375E0,9.576256E-1,7.3680315E0,1.3787756E1,2.0798748E1,-5.4806584E-1,-1.2580319E-1,-3.4837478E-1,-4.006894E0,-1.002464E0,2.5629709E0,6.3299685E0,9.299335E0,1.11529E1,7.56693E-1,9.692295E-1,1.3932374E0,-3.1412566E0,-4.606884E0,